
//<![CDATA[

// a few things don't have var in front of them - they update already existing variables the game needs
lanesSide = 3;
patchesAhead = 17;
patchesBehind = 8;
trainIterations = 150000;

// the number of other autonomous vehicles controlled by your network
otherAgents = 4; // max of 10

var num_inputs = (lanesSide * 2 + 1) * (patchesAhead + patchesBehind);
var num_actions = 5;
var temporal_window = 1;
var network_size = num_inputs * temporal_window + num_actions * temporal_window + num_inputs;

var layer_defs = [];
    layer_defs.push({
    type: 'input',
    out_sx: 1,
    out_sy: 1,
    out_depth: network_size
});
layer_defs.push({
    type: 'fc',
    num_neurons: 60,
    activation: 'relu'
});
layer_defs.push({
    type: 'fc',
    num_neurons: 45,
    activation: 'relu'
});
layer_defs.push({
    type: 'fc',
    num_neurons: 30,
    activation: 'relu'
});
layer_defs.push({
    type: 'fc',
    num_neurons: 15,
    activation: 'relu'
});
layer_defs.push({
    type: 'fc',
    num_neurons: 7,
    activation: 'relu'
})
layer_defs.push({
    type: 'regression',
    num_neurons: num_actions
});

var tdtrainer_options = {
    learning_rate: 0.001,
    momentum: 0.5,
    batch_size: 64,
    l2_decay: 0.01
};

var opt = {};
opt.temporal_window = temporal_window;
opt.experience_size = 30000;
opt.start_learn_threshold = 5000;
opt.gamma = 0.85;
opt.learning_steps_total = 10000;
opt.learning_steps_burnin = 1000;
opt.epsilon_min = 0.07;
opt.epsilon_test_time = 0.01;
opt.layer_defs = layer_defs;
opt.tdtrainer_options = tdtrainer_options;

brain = new deepqlearn.Brain(num_inputs, num_actions, opt);

learn = function (state, lastReward) {
brain.backward(lastReward);
var action = brain.forward(state);

draw_net();
draw_stats();

return action;
}

//]]>

/*###########*/
if (brain) {
brain.value_net.fromJSON({"layers":[{"out_depth":355,"out_sx":1,"out_sy":1,"layer_type":"input"},{"out_depth":60,"out_sx":1,"out_sy":1,"layer_type":"fc","num_inputs":355,"l1_decay_mul":0,"l2_decay_mul":1,"filters":[{"sx":1,"sy":1,"depth":355,"w":{"0":0.05619298462755842,"1":0.08243091069479791,"2":0.05206871949201311,"3":0.005179066783759097,"4":0.030935876188602093,"5":0.008174492792139464,"6":0.0014438109139741347,"7":0.03865871039518002,"8":0.0879121843109111,"9":0.018813091025232237,"10":0.06214749872587506,"11":0.06632944343956314,"12":0.019144892082280058,"13":-0.01790166612659041,"14":0.010422578573665908,"15":0.11238501642397472,"16":0.00841851044601159,"17":-0.052365843825875356,"18":0.051374408437982556,"19":0.02477173332054259,"20":0.17068948686654783,"21":-0.007396483859658917,"22":-0.01432263392074638,"23":-0.07877733930997613,"24":-0.04866525178536321,"25":-0.00707367805947102,"26":-0.09242830093858147,"27":0.054304799809519924,"28":0.004255507590606201,"29":0.06872416733902817,"30":-0.08137617670256579,"31":0.10496487341569664,"32":-0.0491396649434838,"33":0.008975355937702793,"34":-0.03468675602013345,"35":-0.09427091666831487,"36":-0.0311583810941882,"37":-0.05439703518774227,"38":-0.006783536048540559,"39":0.020788247670591405,"40":0.09438672149673907,"41":-0.03523970353250052,"42":0.08619845109280871,"43":0.09382653551059258,"44":0.05798309192037472,"45":0.054321870897688626,"46":-0.004706201704803232,"47":0.006804821823525125,"48":-0.016063916379041573,"49":0.02729055102700395,"50":-0.006660990321236122,"51":-0.03939442078653907,"52":0.018337336338945184,"53":0.08006966688436133,"54":0.06604293634528909,"55":0.04302941555309337,"56":0.01952365430325214,"57":0.0006300555033526185,"58":0.0028791849311836796,"59":-0.04314193768619787,"60":-0.004798972768073743,"61":0.029192000146473683,"62":0.049979629507233704,"63":0.01813180532867762,"64":0.07754991113415259,"65":-0.049189754014186626,"66":0.03109631963064417,"67":-0.08307873205701496,"68":0.00633848768925087,"69":0.002012927316934558,"70":0.009923776473291186,"71":-0.07579490003147646,"72":-0.03274636458411044,"73":-0.13921637738229825,"74":-0.03743747433672554,"75":-0.017290312200940027,"76":-0.01683545687795013,"77":0.017386595512266997,"78":0.07123086952515376,"79":-0.006395621706613512,"80":-0.06895226905247966,"81":0.01522947693939652,"82":0.01403821277854986,"83":0.03650050980582637,"84":-0.032782390053521994,"85":0.0146008881118454,"86":-0.02310386662264303,"87":-0.004816366132221494,"88":-0.059843279062910745,"89":0.009580168793869602,"90":-0.0522361298064302,"91":-0.029086415533420198,"92":0.06643933822528769,"93":-0.06462575839468354,"94":-0.047907475570129976,"95":0.11552202878445102,"96":-0.0193088322989385,"97":0.12039811403588971,"98":0.04436645888910415,"99":0.029792308326206343,"100":0.02400325651143165,"101":-0.041555929252125125,"102":0.05300987225669567,"103":0.02981572844663018,"104":0.017220499807344285,"105":0.09069249962174573,"106":-0.012992218738952146,"107":0.014853385408599625,"108":0.028777602642400375,"109":0.031179661026441978,"110":0.001977768546261096,"111":-0.026835655907077878,"112":0.04411375818227463,"113":0.010116821259698554,"114":0.03963065372843027,"115":-0.0492231029189383,"116":0.013851547426107202,"117":0.019097403908465538,"118":0.049420951546055136,"119":-0.06335886557506493,"120":0.07062896219757685,"121":0.07712593870120461,"122":-0.021620345564523892,"123":0.04812691251214488,"124":0.005803533779199359,"125":-0.08972260725424859,"126":0.0440982148731096,"127":0.031581919872344905,"128":-0.00969373932062699,"129":-0.04733706323769342,"130":0.001896596358294669,"131":-0.03495354478714189,"132":0.017222313579663508,"133":0.012278080112508204,"134":0.032230101059248194,"135":0.0280773858796159,"136":0.06777944385315371,"137":0.1971893705247261,"138":0.04880624393957411,"139":-0.02147922935684748,"140":0.005777755855154665,"141":-0.024913119119929383,"142":0.049676232709624284,"143":0.014386582568818787,"144":0.038803684247804685,"145":0.021871417721905935,"146":0.058865774664788005,"147":0.01899546555508645,"148":0.0037599619175721715,"149":0.06003699215515842,"150":0.08124934339807725,"151":0.021224346182521843,"152":-0.04173200656717837,"153":0.00033860156861745223,"154":-0.03782563507476128,"155":-0.05653721418078296,"156":-0.04879929471080568,"157":-0.02375047904765284,"158":0.06122024543822006,"159":0.018653036554343666,"160":0.013392286264584776,"161":0.041412925274256884,"162":-0.04531097709983414,"163":0.020551348361605916,"164":0.013530572942563285,"165":-0.01422427229054675,"166":-0.057873238593898174,"167":0.012250043566785874,"168":-0.0997856138455877,"169":0.011470321592196606,"170":0.0006676535783860031,"171":-0.0033643040018191245,"172":0.06505211380921871,"173":0.08655099635177682,"174":0.015329379368409042,"175":0.053549381159146744,"176":0.016636840459660265,"177":0.05980943552129369,"178":-0.04518509668552717,"179":0.05232030870014731,"180":-0.0008874809345867971,"181":0.12118076958704353,"182":0.06703959803554461,"183":0.018365648524413997,"184":-0.02855224876556662,"185":-0.06847688614905388,"186":-0.01350650046572011,"187":0.012936408981746897,"188":0.02911764716507028,"189":-0.08116475508025037,"190":0.03286106963588798,"191":-0.009892471396062011,"192":-0.0869922306257173,"193":-0.037343837237722444,"194":-0.04664482081132434,"195":0.09745465569125983,"196":0.022290141155155242,"197":-0.050640046068300866,"198":0.02849580044360388,"199":-0.1015402922296259,"200":0.05709825857008618,"201":0.03282321655862134,"202":0.0329528826593719,"203":0.07304778504630162,"204":-0.015907640263638174,"205":-0.00360527360648522,"206":-0.05661466772570869,"207":0.06207516041258417,"208":-0.04220276003739442,"209":0.06112300617214442,"210":0.06257866186254887,"211":0.032595711164839614,"212":0.044493311626257796,"213":0.07785691456052805,"214":0.03159574392480496,"215":-0.0015188062549105904,"216":-0.026302935492017697,"217":-0.022856480716840145,"218":0.014472394361848455,"219":-0.04141159938431401,"220":0.0072251251022993086,"221":-0.05131644450027347,"222":0.05025757445270153,"223":0.0923251152192604,"224":-0.11184927034672887,"225":-0.06454053500796293,"226":0.07416826562982141,"227":-0.046016084294995686,"228":-0.0040663246438288865,"229":0.07044080033956612,"230":-0.008477120255902458,"231":-0.007428355667266298,"232":-0.04147918145856696,"233":-0.0881721643919829,"234":-0.019039251942609497,"235":0.13138624196955645,"236":0.0367977438545051,"237":-0.035292216039636476,"238":0.059965990977573096,"239":0.06088522271808522,"240":-0.024040120874375754,"241":0.09584688122128923,"242":-0.04140617695008866,"243":0.09650726580237848,"244":-0.04711094440123243,"245":0.03458923558606754,"246":-0.012221621036104403,"247":-0.054309154058531546,"248":-0.042633068699507295,"249":-0.011793405181640779,"250":0.03439258581039774,"251":0.05514051079891428,"252":-0.04018550618475155,"253":0.1339648536431923,"254":0.04572225786524779,"255":0.03181146307721773,"256":0.035803534919978,"257":0.0010746187902578083,"258":-0.034328495265357514,"259":-0.02544918135589546,"260":0.12187834190950338,"261":-0.07090187549415393,"262":-0.014647494927796356,"263":0.014493136614657606,"264":0.04959583821403378,"265":0.14238039755405874,"266":0.09198152074110304,"267":-0.018889572559091506,"268":0.053732628731998695,"269":-0.026915256409199624,"270":0.10486073923225882,"271":-0.0547011641595807,"272":0.04308252340606508,"273":0.04413206648738556,"274":0.005091507751007919,"275":0.02601174777738025,"276":-0.05930099283790946,"277":-0.10228391508555024,"278":-0.04854193103747203,"279":0.012952098422701123,"280":0.045967530497601994,"281":0.038935559231849444,"282":-0.06716448003208605,"283":-0.08040108581767452,"284":0.10535138445666266,"285":-0.019079876467926082,"286":0.0496099646124032,"287":0.07082434763002493,"288":0.03562597867756274,"289":-0.1071911141435235,"290":0.005168283923083295,"291":0.054587018501559316,"292":-0.0565601074037909,"293":-0.06909763820347127,"294":-0.06336022935323249,"295":0.070075503885342,"296":-0.03585365578270045,"297":-0.018436885301535658,"298":0.015439830279327719,"299":0.0942084457770081,"300":-0.0059710234918395,"301":-0.025529663347478776,"302":-0.03145021226274096,"303":0.008660358086764396,"304":0.008263970090707952,"305":0.033853015125873055,"306":-0.014491276069162493,"307":0.047381931866553845,"308":0.07234571718223037,"309":-0.04874198007989027,"310":0.014038243171418812,"311":-0.03498308583616541,"312":-0.022787725680997847,"313":-0.037020966012640585,"314":-0.001216475635133022,"315":0.03005866664706361,"316":-0.07882234411433413,"317":0.054092604399268336,"318":-0.036062344079651976,"319":0.009775265444206609,"320":0.026433913996162607,"321":0.05669150995693008,"322":0.037054953785032,"323":0.007047150437072913,"324":-0.023970754486031042,"325":-0.06783482123294701,"326":0.028090482413338773,"327":-0.014117718046205369,"328":0.11780237886226655,"329":-0.0037267507785990646,"330":-0.09211619461654343,"331":0.03189535436778305,"332":-0.021027503128456825,"333":0.03566236385959536,"334":0.0069003747345709075,"335":-0.00408048884661298,"336":-0.1249424260484251,"337":0.0557897799104095,"338":0.000882573313444106,"339":-0.04290895946279182,"340":-0.018211544365981113,"341":0.006985168280123376,"342":0.027090417414548925,"343":0.029972586041853596,"344":0.03374187978984231,"345":0.01047998459347505,"346":-0.04776556582626276,"347":-0.043665068551565586,"348":0.03452151878111952,"349":0.023587478182457433,"350":-0.07166052767005343,"351":-0.02202257340624484,"352":-0.03376465571888288,"353":-0.02781575661772847,"354":-0.09181535708487812}},{"sx":1,"sy":1,"depth":355,"w":{"0":-0.024005468239417176,"1":0.022519764302267518,"2":0.12957793808228854,"3":-0.006009885850612795,"4":-0.028776116665362908,"5":-0.058364478407680054,"6":-0.09949061974823174,"7":0.0706852298269528,"8":0.02888167969328696,"9":0.23490215662723304,"10":0.09151338415059893,"11":-0.1182058329491289,"12":-0.042469274475870414,"13":-0.024128079812657202,"14":-0.037368236426433145,"15":0.04534386411463471,"16":0.0294408500793435,"17":0.03299654121655985,"18":-0.03949786122696776,"19":-0.03383366507564816,"20":0.07193063412215162,"21":0.056561424238245304,"22":0.08731931303848373,"23":0.11789791923285829,"24":0.06992473142126616,"25":-0.05520565942779123,"26":0.03033931159129584,"27":-0.03592080994440715,"28":0.0606314926852099,"29":-0.04496308726647212,"30":0.11655770803733118,"31":0.10220425269324104,"32":-0.06937749167495214,"33":-0.07505150845836008,"34":-0.0030274153337191976,"35":0.05120326715562965,"36":0.08732849271417935,"37":0.20039557286098936,"38":0.062364014177205204,"39":-0.03354124633377495,"40":0.020461643171173972,"41":0.10625915284074848,"42":-0.03020151536205423,"43":-0.05721204478730301,"44":0.1952947373679317,"45":0.006455384513005126,"46":-0.09689696515432238,"47":-0.04878249887245005,"48":0.009941234860547973,"49":0.01814049389539255,"50":-0.003860660272748755,"51":0.08527354636147849,"52":-0.0878367017598677,"53":-0.04605689737852816,"54":-0.026201816686886863,"55":-0.023865301346770253,"56":0.051315752640620715,"57":0.024847718862441335,"58":0.15237446887973152,"59":0.06795698903954248,"60":-0.07704506150157397,"61":-0.07618230155024762,"62":-0.09405011750462365,"63":-0.10394438904145868,"64":0.048080278475648316,"65":0.16986463075933922,"66":0.11378597073742101,"67":-0.19559256310676706,"68":-0.11689109785374169,"69":-0.0019182907168195011,"70":-0.010425406014274372,"71":0.028632080074395543,"72":0.2295674990779881,"73":-0.032064194509207604,"74":-0.04240582516155935,"75":0.062117679381430334,"76":-0.04028801058454879,"77":0.003203387156433734,"78":-0.023762537254081173,"79":0.20006072578915748,"80":-0.04308667298501178,"81":-0.23470543893394197,"82":-0.04045071403723785,"83":0.07683846662672189,"84":0.002731033187607958,"85":0.020696558098166003,"86":0.2711016779305381,"87":0.014393400933025886,"88":-0.2216047340485415,"89":-0.03658877957025104,"90":0.0030548494317932696,"91":-0.0838545199936085,"92":0.015218253525783093,"93":0.19928545754949106,"94":-0.08701742250086429,"95":-0.3321263267040997,"96":-0.05588938057651232,"97":-0.05898609743558628,"98":0.03281503684770172,"99":0.09887082002899558,"100":0.24188230800334853,"101":0.00025911081318367643,"102":-0.27773395853577,"103":0.01669518405354824,"104":0.014604563223699357,"105":0.05502157788809974,"106":0.029661884181655957,"107":0.2628056810635334,"108":-0.0003197493324662936,"109":-0.2477342543182394,"110":-0.14304151236668064,"111":-0.06468806621007166,"112":0.03666479099526435,"113":0.05868796126630128,"114":0.1316785855845817,"115":0.06952081789023092,"116":-0.2584972830280633,"117":-0.10696211847860794,"118":0.05407770411665268,"119":0.09487806307592594,"120":-0.07499046701716046,"121":0.1032959814172347,"122":0.10486772079820145,"123":-0.2933456327472789,"124":-0.01846658678767257,"125":0.025387897413574622,"126":0.025937235734301133,"127":0.028772952907872112,"128":0.18957709040366374,"129":-0.0036918750188644693,"130":-0.21977871635671423,"131":-0.04705814743014965,"132":-0.07375179907308388,"133":0.01552332368539809,"134":-0.0754403916377384,"135":0.14204531661484024,"136":-0.032819475891540606,"137":-0.16925054405772524,"138":0.0022986885973515793,"139":-0.06696412290625732,"140":0.030140274798882222,"141":0.026541074645398788,"142":0.09539338268397404,"143":0.04777145870206577,"144":-0.1437408134568821,"145":-0.06895763413198847,"146":0.11446924575239951,"147":0.04692831224502155,"148":0.02098715334933497,"149":0.12822116946349885,"150":-0.044984156626687276,"151":-0.23492651106957582,"152":0.06250739033176933,"153":0.07540678620836655,"154":-0.023776744858069406,"155":-0.01836823915559585,"156":0.1266122519194303,"157":0.010375181308501936,"158":-0.029013963000835953,"159":-0.03289108614874567,"160":-0.008667319569298747,"161":0.044514171724659525,"162":0.014693250778083838,"163":0.13481229426977462,"164":-0.03453652958780967,"165":-0.056421397143490336,"166":0.09933435762383414,"167":-0.06181191894344826,"168":0.11245894201461772,"169":-0.04364097995361095,"170":0.07450393277877596,"171":0.043758924254792296,"172":0.05504487661542057,"173":-0.025605961879718014,"174":0.13629923789373868,"175":-0.014239880331387064,"176":0.16233280371585587,"177":0.05268009760554152,"178":0.08963635621149833,"179":0.057555093863074155,"180":0.07154444843958377,"181":-0.022525530939154343,"182":0.049774178593949135,"183":0.13682387759723275,"184":-0.0640659115654749,"185":0.019166850229903942,"186":0.02987847522798029,"187":0.041626523238158374,"188":-0.006520471767323576,"189":0.026155570171807967,"190":0.03202033217302005,"191":0.06864285701015997,"192":-0.046944938348639796,"193":0.039220601027284044,"194":-0.014374493808095155,"195":-0.031094498520885958,"196":0.00685229780739837,"197":-0.01476173182488434,"198":0.02086197917970797,"199":0.008249694971410614,"200":0.036830017100515554,"201":-0.04384673125985841,"202":0.0753108829321168,"203":0.04176799816592251,"204":0.011994381606824034,"205":0.011581921084209138,"206":-0.04994719933093879,"207":-0.08564582582260172,"208":-0.08587632979042567,"209":-0.028934318548570516,"210":-0.07295085859564684,"211":0.036994427041257966,"212":0.05443338903334404,"213":0.07060873664069284,"214":-0.03564843730184616,"215":0.03197247801781378,"216":-0.027074959984662323,"217":0.09052041856430246,"218":0.0004600161289956907,"219":0.08648030510877405,"220":0.056146192623491194,"221":0.013608818775795527,"222":0.019249489399454773,"223":-0.08454326590413812,"224":-0.0227534997020584,"225":0.09247520259916289,"226":0.04097868562116696,"227":0.1277064287144806,"228":-0.07152234314051113,"229":-0.0922125508897859,"230":-0.04252301582974963,"231":0.007051273402840028,"232":-0.10946081823390137,"233":0.05739172207185228,"234":0.06095261463126381,"235":0.10458006247450316,"236":0.02158443349196214,"237":0.05733884474146166,"238":0.068949961361414,"239":-0.00010587548037145567,"240":0.08660660401063078,"241":0.0028597245627554582,"242":-0.09353165280078812,"243":-0.059670835190415356,"244":0.10162351673897244,"245":-0.0011771243829674378,"246":0.08487808441638484,"247":0.027289389443645264,"248":-0.003196093440715376,"249":-0.08218613085307276,"250":0.027238927768013937,"251":-0.01768032529706809,"252":0.03725773323253,"253":-0.03469387839265479,"254":0.11357707585138972,"255":-0.14055264926942795,"256":-0.007822724109980318,"257":-0.06463804275651103,"258":0.01836477007777311,"259":0.10238950986425976,"260":0.09172815226201275,"261":0.029485054517255863,"262":0.002533610709823479,"263":-0.09008417697260382,"264":-0.1301242827713135,"265":0.010879855694694573,"266":0.00901299545249083,"267":0.05674386837925439,"268":0.06371203973196783,"269":-0.027066769130578122,"270":-0.0846610663995613,"271":-0.019644555931984567,"272":-0.06092728322274013,"273":0.0004959337271743138,"274":0.05576944144938207,"275":0.04423297549406422,"276":0.04114478480332192,"277":-0.029618506344702738,"278":-0.059592189387773206,"279":0.020264392501732845,"280":-0.03777343818674719,"281":0.0463042173024757,"282":0.07664455290140956,"283":-0.008907469388481115,"284":-0.16770600306138692,"285":-0.05197061411211061,"286":0.050608709537768894,"287":0.009260453777878852,"288":0.02349474616745911,"289":0.05501646690830779,"290":0.025894933975331956,"291":-0.08362216790560253,"292":-0.10665086328941682,"293":0.05707878060153718,"294":-0.015490786424485075,"295":-0.07538593483493179,"296":0.04836155480462919,"297":0.03537263876416163,"298":0.0018289293497349229,"299":-0.08582522132642333,"300":-0.017678676397921627,"301":-0.01983439195924555,"302":0.11615551591367579,"303":-0.012358761905927239,"304":-0.03418502806476806,"305":-0.09551046310375011,"306":-0.11542487836014872,"307":0.04542107987029868,"308":-0.018263014134380796,"309":0.05579659455435914,"310":0.07435893148345207,"311":0.0023803582176418576,"312":-0.012549602265001866,"313":-0.10130376933849962,"314":-0.06450289220328605,"315":0.05030406227441304,"316":0.06144479973017571,"317":0.06709846757353943,"318":0.02054588747278099,"319":-0.03993524578610605,"320":0.02690346509386071,"321":-0.04592520757784132,"322":0.034604825307740956,"323":0.007329682696127175,"324":0.10658910435689727,"325":-0.023283112781818705,"326":-0.03920867973344161,"327":-0.026977841241272747,"328":0.02285560395876521,"329":-0.09666396144935974,"330":-0.05651927690753403,"331":0.0791380364306706,"332":-0.01886144599608056,"333":0.045303678150947144,"334":-0.03282647597610089,"335":0.18655003361921507,"336":0.05230361947457714,"337":0.025380326713549308,"338":0.045797186393748114,"339":0.10650908687314783,"340":-0.09316090033703125,"341":-0.005115410484715935,"342":-0.009082524213165825,"343":-0.0412066996830408,"344":-0.05055502237995025,"345":0.022600588921610956,"346":0.018560448363976904,"347":-0.0044736076966264355,"348":-0.002984451877930685,"349":0.17817158400651725,"350":0.046286285310926496,"351":0.033114714995147634,"352":0.09016699305536935,"353":0.02756865980610478,"354":0.03795252642395847}},{"sx":1,"sy":1,"depth":355,"w":{"0":0.0521666764557191,"1":0.07489433061737698,"2":0.19014195283068824,"3":0.34237655699956365,"4":0.1413584797850904,"5":0.10057629090031983,"6":0.11371633466595889,"7":-0.04778587872705264,"8":0.019237523099173235,"9":0.11167762905105791,"10":0.2997624482026218,"11":0.12224790665029586,"12":0.08723501961988368,"13":0.10019589667741377,"14":-0.015943054029196806,"15":0.0465099304378973,"16":0.05972218811732432,"17":0.24145233107802105,"18":0.15355435669014078,"19":0.09367362494832253,"20":0.03577966284376822,"21":0.012929176470701095,"22":0.02997787822205448,"23":0.10747914363660314,"24":0.28586394307518165,"25":0.20106260403529147,"26":0.03553372995579657,"27":0.01991276867815114,"28":0.10113507725855317,"29":0.04325516480118318,"30":0.032541071836320073,"31":0.2758634920934649,"32":0.1184231773495948,"33":0.013154429623819255,"34":0.09747941264209223,"35":0.06038611987636765,"36":-0.042848233586642505,"37":0.12354056410772153,"38":0.29365591744742725,"39":0.16603507043619997,"40":0.12481952028631198,"41":0.05842643116611838,"42":-0.01638261727866102,"43":0.02394537387684139,"44":0.13036331211600943,"45":0.481138461376804,"46":0.26674580191837444,"47":0.06781550199029904,"48":-0.012905597818142257,"49":-0.11685918231319668,"50":0.005615343052752704,"51":0.14825404997671476,"52":0.5936749504583954,"53":0.2373428853633317,"54":0.09600253688798699,"55":0.06475092300270496,"56":-0.016208160931940226,"57":0.059823675501113296,"58":0.064494408247643,"59":0.5437283527179203,"60":0.1702452820486167,"61":0.0914747187283717,"62":-0.08379802400849251,"63":0.05758727635615474,"64":0.09673066871399187,"65":0.17408769462928342,"66":0.3794163767323824,"67":0.24813008202540504,"68":0.10020206858254833,"69":-0.06426350771727332,"70":0.03331671768699427,"71":-0.008294770877826714,"72":0.019247088560369722,"73":0.8140163118831717,"74":0.12767531880566874,"75":0.004961319337222105,"76":0.019401367356373458,"77":-0.005913963901051577,"78":-0.01565222659597648,"79":0.08681839181353053,"80":0.8242624438658427,"81":0.20210507559509952,"82":0.04453370828128673,"83":-0.00677878635964691,"84":-0.01585025601888568,"85":-0.0976476845383074,"86":-0.005249910033083058,"87":1.078729656201965,"88":0.2994299593122383,"89":0.05736441414194636,"90":-0.08615215530360525,"91":-0.05456875707767077,"92":-0.036891530227065886,"93":-0.13321549358120538,"94":1.3106438692707296,"95":0.24922373873302697,"96":-0.026209146661587603,"97":-0.05707348153632509,"98":0.08350950885411794,"99":0.058261339184497433,"100":0.040931332426876764,"101":0.6186273006109108,"102":0.17955641232936667,"103":0.023595369705739933,"104":-0.036297733653449606,"105":-0.006292593717089212,"106":0.05811983683009753,"107":-0.11651804439956513,"108":0.6487375956244499,"109":0.23538386692745106,"110":0.0005763169982432739,"111":0.04151985804207075,"112":0.020602213614834566,"113":-0.07185582683467687,"114":0.013646414892278113,"115":0.25664723204411527,"116":0.15194957216626212,"117":-0.02179673440183592,"118":0.030013448409232937,"119":-0.10497361620173028,"120":-0.06100594369696345,"121":-0.14788453065451396,"122":0.1238188618884277,"123":0.04460989461857924,"124":-0.07092893964292182,"125":0.03179635510456438,"126":-0.06805819506260923,"127":-0.030456763719084387,"128":-0.1272999721485235,"129":0.05734527485498285,"130":-0.0027894597154910976,"131":-0.09991017119848089,"132":0.017620192997431405,"133":-0.061784466899852286,"134":0.05862403895861456,"135":-0.08565063540078967,"136":0.1655183709412408,"137":0.127618639639069,"138":0.03685965016048722,"139":-0.09146878378369942,"140":-0.02628123835103122,"141":-0.020704469490909535,"142":-0.08091339300867681,"143":0.11903468283317499,"144":0.1471130549169014,"145":-0.028397478359370197,"146":-0.16765033193090903,"147":-0.0045522108412370445,"148":-0.04982507086186989,"149":-0.10100579419906464,"150":0.0522708412061326,"151":0.06399366572914626,"152":0.0015776254991131532,"153":-0.07013286118383887,"154":-0.09514230121003261,"155":-0.04625417039688986,"156":-0.16443487793887873,"157":0.3534202851707731,"158":-0.10156914852129155,"159":-0.045394088574873044,"160":0.11682182498885343,"161":0.0698465381958019,"162":0.07275151070726316,"163":-0.07991575822573678,"164":0.3463960336474419,"165":-0.03777832479723489,"166":-0.025816456176242467,"167":-0.05720306811478612,"168":0.0941946578077218,"169":-0.1270202938221229,"170":-0.002031000041805171,"171":0.9343835865062282,"172":0.012261829650585062,"173":-0.0405390914071561,"174":0.01830007691248714,"175":0.08382056739581331,"176":0.07847953008683721,"177":0.16267254141092835,"178":0.1813240752900473,"179":0.09964924671920165,"180":-0.0020346986483044307,"181":0.11752042742114431,"182":-0.010753512710166578,"183":-0.03120536095636108,"184":0.14112851574735094,"185":0.07643591881574248,"186":0.08356105368947457,"187":0.020474972058512408,"188":0.013755502717237286,"189":0.12523512434132744,"190":-0.053756971319126795,"191":0.09739023895341799,"192":0.1236709010392711,"193":0.19122264832837235,"194":0.1394945622220723,"195":-0.0016971762280717337,"196":-0.012709427964998795,"197":0.04960907031549877,"198":0.13991541326701729,"199":0.08323970767616813,"200":0.08898015681133853,"201":-0.006008739002934484,"202":-0.07456733923231447,"203":-0.11465737606526367,"204":0.07329822470475968,"205":0.08287097066345633,"206":0.11632194760577676,"207":0.046436155011564235,"208":0.08862619862738116,"209":0.024210589177242538,"210":-0.033155555537129504,"211":-0.03324347861922424,"212":0.0011954999730423115,"213":0.05882996786326401,"214":0.10255992286885299,"215":0.030253452125134146,"216":0.1345880626584731,"217":0.06540896980580233,"218":-0.04356861612695832,"219":-0.12823867230617214,"220":0.0773366259861192,"221":0.041614366182180035,"222":0.036543614662192477,"223":0.028841043777973103,"224":-0.12070157095925226,"225":-0.00597311300392259,"226":0.008876076112846732,"227":0.16609887872559506,"228":0.04201659320032965,"229":0.10924115218705521,"230":0.0322891470852589,"231":0.013284897128757325,"232":-0.01843888660397464,"233":0.0035383051429552477,"234":0.01251882079475359,"235":-0.015976464271530044,"236":0.037375635969419695,"237":0.0021745345439546054,"238":-0.05511235388057932,"239":-0.04262851172396869,"240":0.04391907823671486,"241":0.0698967122956551,"242":0.012885391213570126,"243":0.032500053286699734,"244":0.053181131132193304,"245":-0.06671061120209786,"246":-0.0351210511562396,"247":0.046657741972138594,"248":-0.07161880007686203,"249":0.07857600577608684,"250":0.0036169629044593954,"251":0.01206762847174375,"252":-0.0597945437041959,"253":0.034161313389687364,"254":0.06246118168976858,"255":-0.07949000020019654,"256":0.016571371299103924,"257":-0.12324252489917921,"258":0.07628230316858392,"259":-0.050303820514892406,"260":-0.05772617005709606,"261":-0.13512808205205454,"262":0.1366493014815626,"263":0.07481172164572543,"264":-0.05312618881213593,"265":0.007653088336815345,"266":0.030099115620848948,"267":0.011469458301538615,"268":-0.10280632565005315,"269":0.1007694683826696,"270":0.03455221996199077,"271":0.03718056565759835,"272":-0.07742148422838878,"273":0.06996211946340009,"274":0.025266848121527304,"275":-0.04391123829157954,"276":0.22087933201546955,"277":0.056447658760721095,"278":0.04038622283420691,"279":0.09363868959019217,"280":0.02132882626818208,"281":-0.022226170691569982,"282":0.015128226373323844,"283":0.16004690895281704,"284":0.13022363230371145,"285":-0.024503376547715238,"286":-0.03281366757480192,"287":-0.05668928642585738,"288":0.006085289671453996,"289":0.0250103562907932,"290":0.011020332894931097,"291":0.07750654449357242,"292":0.01840973618395741,"293":0.054498841681328354,"294":-0.06287107202990169,"295":-0.10509015879784539,"296":-0.06985501887106448,"297":0.09109209102769486,"298":-0.004298544056225087,"299":0.003273688359538961,"300":-0.005933523380904224,"301":-0.04490226815687778,"302":-0.019007463701653602,"303":-0.022094212471721438,"304":0.15001999712461778,"305":0.18966891756872586,"306":-0.011282482614739896,"307":0.10469696274702238,"308":-0.04439102689605852,"309":0.012733821091821479,"310":-0.029939248925014716,"311":0.0584449910591863,"312":0.09969263887191258,"313":0.13276523145237545,"314":0.05108276382357516,"315":-0.05245727562908902,"316":-0.010351857926854332,"317":0.0022196730890066325,"318":0.0930435346719509,"319":0.05711144968756577,"320":-0.08358939194965258,"321":-0.10620731984878191,"322":0.03160617122694494,"323":-0.0318118608668123,"324":-0.035026670342071124,"325":0.0429805544596456,"326":-0.10647411395693056,"327":0.04800250574015773,"328":-0.09317719308895941,"329":-0.04840087131635795,"330":-0.03454728167858542,"331":-0.11251171917733281,"332":0.23588526954834513,"333":-0.07438122287410448,"334":-0.058962904834024304,"335":0.019498844052638065,"336":-0.03355555599964668,"337":-0.1064127682599371,"338":-0.04700944301091881,"339":0.2664755252291707,"340":-0.012860320462900712,"341":-0.07197216866709176,"342":-0.023742118559920568,"343":-0.00461093562198536,"344":-0.0013063262716158067,"345":0.05543741960951562,"346":0.5890570600850109,"347":0.162299600547196,"348":-0.031207283919030233,"349":-0.02337695465882197,"350":-0.059586033243059576,"351":-0.041314774447613285,"352":-0.03795922048484361,"353":-0.052331350493177865,"354":-0.04065106514367278}},{"sx":1,"sy":1,"depth":355,"w":{"0":0.029037847419273937,"1":0.19475064540398737,"2":0.11621841677707588,"3":0.3238440877475692,"4":-0.05766085415640627,"5":-0.041789623841886794,"6":0.055449852891488315,"7":0.05239940637349405,"8":-0.0059921562530798455,"9":0.11536355569508396,"10":0.3728786205243482,"11":0.01338877122528732,"12":-0.029799867864095324,"13":0.028342522029650135,"14":0.01195310671709169,"15":0.018293252132550692,"16":0.17335752003710617,"17":0.30585539483083085,"18":0.047790356063362745,"19":0.09445451602536398,"20":-0.015709671788530954,"21":0.019253807356703102,"22":0.06169840229091379,"23":0.18253941605132348,"24":0.28384159660461167,"25":0.04876241819062815,"26":0.025686081674711665,"27":0.028500689964945786,"28":-0.021602367247698328,"29":0.08019337372689035,"30":0.21754166510243206,"31":0.26214816010333425,"32":0.1117356789222184,"33":-0.029655247067961747,"34":0.05917526824844634,"35":0.045095765678484764,"36":0.06630121729415171,"37":0.17701793154144158,"38":0.4274668903546992,"39":0.037961874286490144,"40":-0.0051246727651923455,"41":0.06415599963368743,"42":-0.01933103693224153,"43":0.06454364534154461,"44":0.13941418647072548,"45":0.3958546729394385,"46":0.003962280630739518,"47":0.10615359429419549,"48":-0.039843987090967606,"49":-0.03395472231881656,"50":0.1459654159249296,"51":0.13888137887793017,"52":0.5521085620506822,"53":0.10108070269052152,"54":0.031170504547109682,"55":0.07023686955070807,"56":-0.03822937388637828,"57":0.11836459050595366,"58":0.1239473352459335,"59":0.5187177394344638,"60":0.09118402737776068,"61":-0.06345224025881045,"62":0.07668400168206808,"63":0.038631377350735845,"64":0.03941907873616652,"65":0.06658703863234712,"66":0.49691824269699425,"67":0.18444016379417758,"68":-0.043359749855715134,"69":-0.12076908176194065,"70":0.06644302484598923,"71":0.08780013538788937,"72":0.1827182544155663,"73":0.7875907088734323,"74":0.021612506853843035,"75":-0.06378716288035952,"76":0.012655997058099647,"77":0.04898020312650609,"78":-0.022686846801562816,"79":0.27299538112643956,"80":0.8252825072182597,"81":-0.05727897258213039,"82":-0.08995011475001938,"83":0.03587653671091235,"84":-0.06096602697865336,"85":0.012796507935717768,"86":0.2460360457270373,"87":1.0866007176746775,"88":0.03026791267041327,"89":0.009966794062086158,"90":-0.10656221258549378,"91":-0.11156242938773847,"92":0.0563007915773755,"93":0.1806045639538618,"94":1.2569615636348541,"95":-0.08603035576433067,"96":-0.062368267436833345,"97":0.0019103084216544363,"98":-0.04778789811797524,"99":-0.009686340414936923,"100":0.3265897902030684,"101":0.6510012034562179,"102":-0.036372974281630326,"103":-0.014015964135640978,"104":0.10790997080246739,"105":-0.04485582167652472,"106":0.1110922149990157,"107":0.24393175331556294,"108":0.6182358333756158,"109":0.05216751050052989,"110":-0.10806288279323861,"111":-0.032763355209659444,"112":-0.12521697948559352,"113":-0.0012036444448055813,"114":0.2239342596690119,"115":0.309260576974648,"116":-0.06119464564818113,"117":-0.07428762579726911,"118":0.016811502593928666,"119":0.027581117644514534,"120":0.0015432071641469638,"121":0.05258996313902454,"122":0.1857210606649702,"123":-0.07878617847212792,"124":-0.04340131640388923,"125":-0.09117687436116693,"126":-0.07001115243217554,"127":-0.06532785746365441,"128":0.0319371352534766,"129":0.022867050706452816,"130":-0.1748442240472197,"131":0.0363272364211018,"132":0.12571878138532694,"133":-0.017108300658241503,"134":-0.13103255408654477,"135":0.13926811469103922,"136":0.09410274235257651,"137":-0.07560748487916233,"138":-0.03286527909528399,"139":0.1266954052893371,"140":-0.08205813420269319,"141":-0.07605333640651378,"142":0.14110872847538472,"143":0.1760057646459163,"144":-0.1602119130648255,"145":-0.04387025873189277,"146":-0.13224615826128133,"147":0.034726078149228366,"148":0.05145366988887834,"149":-0.09646072617470017,"150":0.057626416961571725,"151":-0.17858739288856723,"152":0.022225473361665932,"153":-0.057985250088602246,"154":-0.12442143744062745,"155":-0.045501349284501974,"156":-0.06766116682170785,"157":0.253802627230774,"158":-0.08422358595056319,"159":-0.040045166827426856,"160":-0.13583896077100652,"161":0.04490869066967843,"162":0.015227500361071773,"163":-0.06611284851137447,"164":0.4659196370368544,"165":-0.04851403247735926,"166":-0.04880973101956246,"167":-0.0380295666944213,"168":0.041452659659727026,"169":-0.027701707443177605,"170":-0.002434956207786505,"171":0.8682515022380347,"172":0.030729811716451297,"173":-0.045937628317706126,"174":0.06284572670720526,"175":0.11294252560551094,"176":0.04176274603771182,"177":0.11534293314560685,"178":0.11642118381816219,"179":0.14151139424841425,"180":0.014442179593996317,"181":0.011079926357320032,"182":-0.02282781488459111,"183":-0.04638308348758825,"184":0.1101996278066586,"185":0.17401381250025968,"186":0.12441905088647917,"187":0.0537518250437498,"188":0.013189100709078775,"189":0.1010009845026282,"190":0.05098247166174233,"191":0.10189877069306863,"192":0.11421891796501106,"193":0.03244663470384597,"194":-0.08964652624710664,"195":-0.008722762929659152,"196":0.027493074162629798,"197":0.015785823936689116,"198":0.14694271311597693,"199":0.027347338050887387,"200":-0.026585891925373674,"201":0.03932062578897944,"202":-0.01032127602920374,"203":0.08790821376022571,"204":0.08312762921909966,"205":0.06527550533843937,"206":0.05715394956782182,"207":0.07960573616308445,"208":0.07586529232323602,"209":-0.04880500877606757,"210":-0.05098233785400604,"211":0.11988963537048043,"212":0.1066063782732291,"213":-0.01456088927566797,"214":0.06554051844218785,"215":-0.009661490924190982,"216":-0.08850251059462826,"217":-0.007290849189171346,"218":0.010318024806164715,"219":0.048143851810276896,"220":0.08177490266884375,"221":-0.062417830506237844,"222":-0.03067136890875223,"223":-0.009148348548212568,"224":-0.03989293643245692,"225":-0.011956629104117007,"226":0.0114907911386924,"227":0.10936928038912788,"228":-0.03166776594263288,"229":-0.03447849277568808,"230":-0.04702675953855233,"231":0.027797947502167224,"232":-0.0038170325916985146,"233":-0.020236568465810834,"234":0.0779184202428507,"235":0.11133895993556335,"236":-0.02229494350966943,"237":-0.03596658261084928,"238":0.06971447005507966,"239":0.02228142645513949,"240":0.0035019469280285855,"241":0.02792295004130582,"242":0.009547146222576295,"243":0.016694946784657744,"244":0.025300545436171055,"245":0.01990279019948694,"246":0.005389099952292971,"247":0.06306881195140504,"248":-0.030150687673073825,"249":0.022959998459924417,"250":-0.018830476700832557,"251":-0.031540127019253586,"252":-0.08781649285710569,"253":0.05011301510785411,"254":0.18738108689852864,"255":0.009898293698573766,"256":-0.06026899265076916,"257":0.03934629277703453,"258":-0.023183464773502534,"259":0.04529055194581226,"260":-0.09169092577464155,"261":0.1270823030849553,"262":0.1047197305313381,"263":-0.0009225524882951758,"264":0.013222972629510719,"265":-0.03561173999298342,"266":0.042678206031892985,"267":0.0062487377941273905,"268":-0.06670781976441807,"269":0.1413320992421401,"270":-0.04892444699656263,"271":-0.0303116528250888,"272":0.029598341227441222,"273":0.007888031907378261,"274":-0.04092699253309057,"275":0.09270726362006082,"276":0.21286910933051256,"277":-0.04140895453707601,"278":0.04219400044275954,"279":0.026511430842958816,"280":-0.037104839010653846,"281":0.013815228919107072,"282":0.18009930640547722,"283":0.16828504083031715,"284":0.034945853813821176,"285":-0.027107771945958835,"286":-0.0058982340504733855,"287":-0.07811132119127569,"288":0.1075421272604295,"289":0.12277474056706969,"290":-0.027936356231242437,"291":0.030308230423801204,"292":-0.016652000683769427,"293":0.10758430535930413,"294":0.015541797273407262,"295":-0.012343140225642415,"296":0.04091323516085548,"297":0.06610283006243185,"298":-0.12238776352694605,"299":-0.004251977418631106,"300":-0.06767386300307121,"301":-0.0762483089727019,"302":0.04244383903952642,"303":-0.027743875149292732,"304":0.1220323099537214,"305":-0.02642009178959925,"306":0.06604073999083368,"307":0.010262969161193826,"308":-0.015547245996215701,"309":-0.04881185902151159,"310":-0.02307721532147803,"311":0.11236214882175158,"312":-0.03279478710815805,"313":0.00770501771129648,"314":0.019054828553523764,"315":0.02404760974789422,"316":0.053847407393864455,"317":0.014777025486249984,"318":0.12153686308605448,"319":-0.03242719171976367,"320":0.003895807661687088,"321":0.0005754305958784693,"322":0.04251889691406039,"323":0.07522829165164348,"324":-0.01059815825161769,"325":0.0567400680344572,"326":-0.06882334689764084,"327":-0.04290078061364505,"328":0.06250468566020752,"329":0.01774173572472826,"330":-0.01364507665149252,"331":-0.12397059558770426,"332":0.30466118123639113,"333":-0.03598815182376625,"334":0.06494732148073684,"335":0.014103139826220572,"336":-0.01295835502998013,"337":-0.023009019749722994,"338":-0.14596239356221494,"339":0.34568760043862506,"340":-0.030730188118878718,"341":0.015210037664226458,"342":-0.10508254078119007,"343":0.028447205639155947,"344":0.019713911002039824,"345":0.11557986564881911,"346":0.5786047979851846,"347":0.028108684013483685,"348":-0.01260426085365193,"349":-0.04805791455452591,"350":-0.04537586177762116,"351":-0.056569662768631054,"352":-0.08369590953137719,"353":-0.058478499477302735,"354":-0.03709510004518324}},{"sx":1,"sy":1,"depth":355,"w":{"0":-0.02951162055501616,"1":0.045898175986976715,"2":-0.01923222150606634,"3":-0.039017133440633046,"4":0.06662182282665638,"5":-0.061282251985330397,"6":-0.034077267928205396,"7":-0.032392608925907354,"8":-0.018322948290796923,"9":-0.011420361557782756,"10":0.10094704686465952,"11":0.06824688012822765,"12":0.015609695189044401,"13":-0.03670905547679086,"14":-0.007187871251765999,"15":-0.05978089171065557,"16":0.02104758125204301,"17":-0.010139419980480678,"18":-0.05248634793168542,"19":0.05345026986774221,"20":0.01138776517136718,"21":0.01971507990975309,"22":-0.01188168681993267,"23":-0.05654231859494675,"24":0.012553675173706695,"25":-0.05834386669285624,"26":0.016669133013509224,"27":0.055535224317795236,"28":0.01705931140435969,"29":0.029602531045352275,"30":0.1328118669935718,"31":0.07052646288198057,"32":0.04585216507246577,"33":-0.043724669009301206,"34":0.043835037134644414,"35":0.07425945303123498,"36":0.032503735782313525,"37":0.03249518804416061,"38":-0.022991781492325645,"39":0.12275156800047393,"40":0.0687632626593668,"41":-0.0017135413381026234,"42":-0.004886724934212081,"43":0.02317407608554359,"44":0.006950054939634069,"45":0.01562608619356406,"46":0.06571776779894788,"47":0.06952855830940569,"48":-0.01896739755428671,"49":-0.1146846001875862,"50":0.041429490917475754,"51":0.030288660892409943,"52":-0.03553236571888424,"53":0.05070282051288243,"54":0.004517669331624022,"55":-0.029922007989972663,"56":-0.054573215134916246,"57":-0.03914796525545079,"58":0.018708855426019695,"59":-0.10390192817231671,"60":0.06207237210696858,"61":-0.0016524356629531438,"62":0.0545918138661966,"63":-0.0099813398273229,"64":0.1322866431319911,"65":-0.01651911748539884,"66":-0.040285682662067494,"67":-0.012651334713864905,"68":0.05926447543188605,"69":0.09636777711738516,"70":0.03733990623713225,"71":-0.00801417016396625,"72":-0.013749585838593098,"73":-0.04536846100578954,"74":-0.10737200029427788,"75":0.06593991669199505,"76":-0.00027541705225832963,"77":-0.030244998842733115,"78":0.026071519689061587,"79":0.027290088275168437,"80":0.04064193213213859,"81":-0.06832030651509102,"82":0.1343878884607577,"83":0.0030437295148349744,"84":0.016385032206709303,"85":0.00964821895312905,"86":0.11933008209390612,"87":-0.17409991369316435,"88":-0.12806636301323557,"89":-0.03093224811433062,"90":-0.0013979017518899787,"91":-0.1232430232410143,"92":0.02138837139698913,"93":0.00858870949383871,"94":-0.045374597438958796,"95":-0.1376027336230827,"96":-0.03989056078729056,"97":-0.009787794811647736,"98":-0.013838522427361206,"99":0.0129560292802529,"100":0.04001428980501916,"101":-0.048500443222523185,"102":-0.0021547648710793267,"103":0.006132623973986395,"104":0.08738033403088435,"105":-0.003579691123283503,"106":0.01238404010792436,"107":0.012069521437460512,"108":0.0114135240958133,"109":-0.17392095835336407,"110":0.019694749464182988,"111":-0.04808954916575757,"112":-0.008332274814912652,"113":-0.03180080047007481,"114":0.025175264481871112,"115":-0.062419807995171134,"116":-0.08189880204840067,"117":-0.05716492254748597,"118":0.08675469844445695,"119":-0.0224857165432262,"120":0.05763980650826564,"121":0.010444773802691362,"122":-0.0670445418224218,"123":-0.04074110969394586,"124":0.05518889496331499,"125":0.023963372233120006,"126":-0.017159909145118495,"127":0.043236756366935435,"128":-0.016336800145763292,"129":-0.11157870879097129,"130":-0.12460337369764396,"131":-0.027546919425366634,"132":-0.034266273303919,"133":0.0518311652055759,"134":-0.030946592620212585,"135":0.014452915290828053,"136":-0.061479360999054045,"137":-0.07269463696217575,"138":0.06436940871906584,"139":0.014209051188916884,"140":0.00206960946456124,"141":0.0611112191416459,"142":0.04887422814412769,"143":-0.0007719605453381924,"144":-0.08119045491933824,"145":0.027631949602569556,"146":0.004353887770338691,"147":-0.025031380427304073,"148":0.04174255265862497,"149":0.10095964871782129,"150":0.06123469207519111,"151":0.028634365290386175,"152":-0.009569147455174872,"153":-0.017016624688984912,"154":-0.016722338946184516,"155":0.011461743425376416,"156":0.07601164491093045,"157":0.021942074759282542,"158":-0.0056852543066903405,"159":0.01298645552811121,"160":-0.0036613981736522074,"161":0.005473681042685295,"162":-0.006103459147192223,"163":-0.0108018227651737,"164":-0.03253041257360909,"165":-0.0059228666100342615,"166":-0.048326623598348536,"167":-0.026982360973821017,"168":-0.02725647838486689,"169":0.006336523091545175,"170":0.04541404392747189,"171":-0.013996837627102314,"172":0.06974878699519088,"173":-0.005500862924043847,"174":-0.022676920986418325,"175":-0.01727403696053498,"176":-0.05687362717701707,"177":0.059453118804704004,"178":0.060549616709736284,"179":-0.05343324851605397,"180":-0.023857564288665832,"181":0.016704026113465102,"182":-0.06415988601211237,"183":0.0846568556790286,"184":0.03866042458569112,"185":0.008206826836358698,"186":-0.12258313838842286,"187":0.01363892752942006,"188":-0.0008690323781736074,"189":-0.007288491337122309,"190":0.06895353106767112,"191":-0.0016765942951902063,"192":0.21088187188917498,"193":0.02347122915485449,"194":-0.007300250904186641,"195":0.0005171691461604153,"196":-0.04201866378544331,"197":0.0008354128302994471,"198":0.015018189328384028,"199":0.013347999324230524,"200":0.029845737334049494,"201":0.12214629967309008,"202":0.02355589514980155,"203":0.07373260625368394,"204":0.01736024877008146,"205":0.03912475646659557,"206":-0.02657227754122856,"207":-0.016466126901888704,"208":0.030468996941661296,"209":0.012706338823655712,"210":0.03858672591065738,"211":-0.05420266292424206,"212":-0.11187164785805724,"213":-0.1089931368867048,"214":-0.08557377293222881,"215":0.026197819521901592,"216":0.009076436610072354,"217":-0.010195489914042372,"218":0.048600819599917425,"219":-0.07651906264730052,"220":-0.012611989420476415,"221":0.051699986578559544,"222":0.01343577724462206,"223":0.1189357493444897,"224":-0.06877037966322914,"225":0.02659163178053114,"226":0.008555401852490992,"227":-0.021355923790882143,"228":0.056221025249735136,"229":0.009540963717310282,"230":-0.04066727182513167,"231":0.020584566613920826,"232":-0.001028846943599517,"233":0.031029111192886476,"234":0.025054900612443205,"235":0.011295510981765594,"236":0.01642258102965311,"237":-0.03460715629663814,"238":-0.028241803118420044,"239":-0.11980496046233327,"240":0.021826295867291765,"241":-0.010357982526097131,"242":-0.04095039132907207,"243":-0.03128156104416787,"244":-0.0388301270615124,"245":-0.006047590602247063,"246":-0.045338582698819706,"247":-0.05221019364446707,"248":-0.028021307895093477,"249":-0.097467130587245,"250":0.01577189195984053,"251":0.057035998534066934,"252":-0.003263444368076965,"253":-0.005713781237535508,"254":-0.06084945526448863,"255":-0.13189932084486714,"256":-0.034422958975368276,"257":0.08853116009240672,"258":-0.027144956706788886,"259":0.020649165429831962,"260":0.0356626403956312,"261":0.04918029360418585,"262":-0.08483736398320102,"263":-0.09085614489467164,"264":-0.04604975294599819,"265":0.004552769272583085,"266":-0.06372553494377248,"267":-0.0174176497407036,"268":0.043651126003438095,"269":-0.07135303105835905,"270":-0.03851432430580146,"271":-0.020722594095310798,"272":-0.1270007708240867,"273":0.06209438639427131,"274":0.03840537386863404,"275":-0.009266421675923732,"276":0.039397678044698126,"277":-0.027031764591966455,"278":0.024104167416045617,"279":-0.02542816684560538,"280":0.0029598430055806147,"281":0.11627437401271569,"282":0.017801886014240414,"283":-0.0687099612596924,"284":-0.054918388195403296,"285":-0.0653827722146315,"286":-0.10798713079094586,"287":0.017720674229632794,"288":0.0003849596946754624,"289":-0.046562995892504344,"290":0.02731895600571728,"291":-0.0822930585671553,"292":-0.01176463273256386,"293":0.022803622058686857,"294":0.009545952117218598,"295":0.01896891989503903,"296":-0.020406309773431656,"297":-0.047343099374750584,"298":-0.03516465795724977,"299":0.08965194034948912,"300":-0.005364656947829383,"301":0.046303574226353526,"302":-0.042647011278668295,"303":0.017555889947785553,"304":-0.028591996974986062,"305":-0.017657487366913322,"306":0.017473173779365418,"307":0.0583883518701774,"308":0.029419701293823982,"309":-0.015361216246694837,"310":0.0030807623131849683,"311":0.015709927539840567,"312":-0.023231490739342362,"313":0.0015775428377441218,"314":-0.05100185462922888,"315":-0.0911340416509685,"316":0.037380676106487855,"317":-0.01852861682304418,"318":0.07581367799375248,"319":-0.0066556009488741245,"320":-0.13951626904592265,"321":0.04475490731407956,"322":0.07004290453595083,"323":0.021079333136165414,"324":0.0568675214136407,"325":-0.09195367818039658,"326":-0.024896868684714333,"327":-0.017164899572207487,"328":-0.03268760476711478,"329":-0.008717873992119719,"330":0.08720540158834998,"331":-0.01928506599979913,"332":-0.043495699602604396,"333":-0.04319356384295424,"334":-0.01370760782568598,"335":0.06132540278211665,"336":0.04291474049834263,"337":0.00967456578926658,"338":0.01613742584600544,"339":-0.010287063670396,"340":-0.04441896205227228,"341":0.02482283227593021,"342":-0.015216384598197914,"343":-0.03334785053563686,"344":0.000899842430984308,"345":0.021806256693683596,"346":-0.06336094346046432,"347":0.028321104806135425,"348":-0.08377002287885356,"349":-0.06534849102589894,"350":-0.039816252805024877,"351":-0.006440599326390267,"352":-0.010902967345443812,"353":-0.009588593561550156,"354":0.029365264754440134}},{"sx":1,"sy":1,"depth":355,"w":{"0":0.02116591667571359,"1":0.0769067469265319,"2":-0.013428506652851084,"3":-0.006313328492248024,"4":-0.012444543410107152,"5":-0.06056455265183603,"6":-0.0018009316002903773,"7":-0.06696299110108346,"8":-0.0023604314573127173,"9":0.003630925080813488,"10":0.04439685038202497,"11":-0.023026764802287908,"12":0.04387852513056572,"13":0.010011293608592351,"14":-0.019096922614995404,"15":0.05178254436989235,"16":0.0027175540603024376,"17":0.022876296120660805,"18":-0.009315619192502041,"19":-0.016127874342927243,"20":0.01188640709288979,"21":-0.02264329779766387,"22":-0.1081901161619395,"23":0.0008982875306147187,"24":0.03505942711954618,"25":0.05630923502460273,"26":-0.02373316911385793,"27":0.03128728646601315,"28":-0.03954006851834353,"29":-0.07951938014905952,"30":0.0024741906860422168,"31":-0.05633286301705541,"32":0.0020974129702926556,"33":-0.08825515573955368,"34":-0.059894632949624084,"35":0.021768007655031046,"36":0.06342132870936668,"37":-0.025216151217003317,"38":0.0029008542446040436,"39":-0.010842302022355659,"40":-0.14406625915967186,"41":-0.06625497223870985,"42":-0.031951644748400385,"43":0.03882851557138284,"44":-0.01772217348988393,"45":0.020240440733336317,"46":-0.047901680193490025,"47":0.04864480767231031,"48":-0.005061951893718794,"49":-0.004109726262815357,"50":-0.13033889828816558,"51":-0.03322452668023753,"52":-0.03197521318148641,"53":-0.10160825017951076,"54":0.04763627381678005,"55":0.018756605554381717,"56":-0.034713105490282815,"57":-0.010135834123173907,"58":-0.10430548730067202,"59":-0.00582367294921292,"60":-0.04271778279329861,"61":-0.008963435626365812,"62":0.04956042229300498,"63":0.003906274683765747,"64":-0.0805985326608164,"65":0.020004120474387706,"66":-0.04582797453816587,"67":-0.08904473678403332,"68":0.12154300696142811,"69":-0.05458735355962412,"70":-0.031811092604421456,"71":0.04726826461283558,"72":0.0061975177572205714,"73":0.07074212410747771,"74":-0.017824939451434443,"75":-0.09654175636079153,"76":-0.0358817409232197,"77":0.056438012985749964,"78":0.09797074646286415,"79":-0.06891434365419635,"80":0.010580329477471133,"81":-0.020689067427326187,"82":-0.056839709194245656,"83":-0.0395731508202656,"84":0.050735159809522416,"85":-0.0709352989343701,"86":-0.003513332860317907,"87":0.005861375931114142,"88":0.04483780132742364,"89":-0.02575868121482868,"90":-0.011839149264350509,"91":-0.09155643289882419,"92":-0.026566842077027256,"93":-0.042855217167528645,"94":-0.048284234416145703,"95":0.02029974064372376,"96":-0.14834325953968477,"97":0.05462664572289109,"98":0.051172536337032296,"99":0.021400382600254494,"100":-0.04371201112236297,"101":-0.027127584877720802,"102":0.04352917351599697,"103":0.059501153662453114,"104":-0.04017685844600029,"105":-0.008168577212539614,"106":-0.06631417967315695,"107":-0.03947289234521698,"108":-0.04720079368955982,"109":-0.05256352173613811,"110":-0.032495459689092794,"111":-0.07100899840799302,"112":-0.033373236283899176,"113":0.01106089893441513,"114":-0.038467918387212044,"115":0.007607903613385298,"116":-0.08035241925933649,"117":-0.036795106403790266,"118":-0.037632050800649144,"119":0.08410287282827106,"120":-0.07233016539398143,"121":0.036092002377592636,"122":0.02897113563733919,"123":-0.0655621019625684,"124":0.04016661193990221,"125":0.02199957797202383,"126":0.04256079548800409,"127":-0.07536775880528394,"128":0.006176298647647396,"129":-0.008687105606830092,"130":-0.07507144572461356,"131":0.008280775044938822,"132":-0.06419386581728109,"133":0.0280104012754418,"134":0.00015826212836811998,"135":-0.040379395381819304,"136":-0.1097382723500589,"137":0.04696835395590183,"138":0.03852614026456353,"139":0.06537693108169848,"140":0.007973169299544924,"141":-0.0021424959013611237,"142":-0.034778592948602735,"143":-0.007677747801731846,"144":-0.05581882396553974,"145":-0.042848241840748764,"146":0.04981571265216495,"147":0.04881668631731784,"148":-0.06451388193486533,"149":-0.02058286201198813,"150":-0.049660804449632535,"151":0.08380173560447779,"152":0.12216591776481979,"153":0.004389245222638366,"154":-0.029017245958087808,"155":0.0017969537611957917,"156":-0.01081634384479225,"157":-0.03838809950201925,"158":-0.02254016473025084,"159":-0.01596345809210896,"160":-0.1127805412130981,"161":-0.03158090965676879,"162":0.000925483577804187,"163":-0.06964961305258738,"164":-0.13591136290631273,"165":0.04231222286549353,"166":0.061631921836555886,"167":0.048860136830635774,"168":0.029610671957907175,"169":-0.017327568255441118,"170":-0.052015403146511964,"171":-0.1281303968387611,"172":0.015598082077627829,"173":0.07009703396290365,"174":0.03086028851021132,"175":0.04657421615627255,"176":0.006513474133710107,"177":-0.05718916566393548,"178":-0.0024120501661476566,"179":0.10122793841378097,"180":-0.034603773827056566,"181":0.030063127310685566,"182":-0.05395184542093915,"183":-0.033912595520528326,"184":-0.08573111229707317,"185":-0.09701501874666814,"186":0.02688293211816652,"187":-0.04840734719502298,"188":0.026854064721732386,"189":0.04099620049837961,"190":0.025876072018112387,"191":-0.022177985526360158,"192":-0.045998539898270595,"193":-0.07578852304334574,"194":0.014848713135641364,"195":0.018278292510808813,"196":-0.07932200462043662,"197":-0.09811591449771911,"198":0.00016947396313910732,"199":-0.06469044335498904,"200":0.08751903530305725,"201":0.006408778442771794,"202":-0.00236317587764545,"203":0.013988635544454365,"204":-0.10148753954094847,"205":-0.05813455452055527,"206":-0.06472519900792585,"207":0.04419268205470465,"208":-0.0701911615160092,"209":-0.017342036882730758,"210":-0.02916055475143895,"211":-0.0410707537051985,"212":0.04300477119830821,"213":-0.024841455270696828,"214":-0.013815056918276628,"215":0.06192428501730006,"216":0.13791629643763062,"217":-0.013486440508509839,"218":0.008618647242718753,"219":0.02917654996008196,"220":-0.05603463939439463,"221":-0.09895034922770127,"222":-0.08307862134260302,"223":-0.03890793146066271,"224":0.017614566997109112,"225":0.0009494042861093756,"226":0.026824279922323384,"227":-0.019459640159334633,"228":-0.03843429299406413,"229":0.013295427686571715,"230":-0.062245329533462436,"231":0.022878471921777117,"232":-0.024553054476939968,"233":0.032884150793001665,"234":-0.03250554476877305,"235":-0.045405315935319795,"236":0.0007880856123120154,"237":0.004974326797013715,"238":-0.02350804990965079,"239":0.015126245101029046,"240":-0.015617324683623373,"241":0.010717685826192131,"242":0.017534097506593377,"243":-0.055366729325053966,"244":0.12600161190846368,"245":0.027584080998161554,"246":-0.02981810529860437,"247":0.02997443505358845,"248":0.056284887016042395,"249":-0.060173653411000956,"250":-0.005622407533522694,"251":-0.010026399751640906,"252":-0.061147679303602306,"253":0.017813761561744707,"254":-0.004344456391218174,"255":0.0187834709718907,"256":-0.004222432417804287,"257":0.05670711172466241,"258":0.010225953425827205,"259":0.005054368989028217,"260":-0.07059413031731403,"261":-0.02594128049273652,"262":-0.10755742118499188,"263":0.04548762724556962,"264":0.03668451632864851,"265":-0.053932988246709564,"266":-0.010637554101850678,"267":-0.07654471868786841,"268":-0.001969790127666144,"269":-0.0006288434016225858,"270":0.059201266820678715,"271":-0.015340962240511367,"272":-0.018728407675982356,"273":0.050834635327825145,"274":-0.0012315684941352663,"275":0.11265014292314342,"276":-0.028639955157658475,"277":-0.06772135141034576,"278":-0.02473933810556426,"279":0.006542591333206137,"280":0.03216559239043388,"281":-0.05803996091343224,"282":-0.027367576383190945,"283":-0.03490749507222788,"284":0.02158331619699872,"285":0.07937143200289201,"286":-0.026222823930734076,"287":-0.058890703548293004,"288":-0.07338788797384466,"289":0.01302301092980065,"290":-0.047724767328307986,"291":0.008114353794927363,"292":0.03433436713781333,"293":0.1505780856172914,"294":0.018977715065818287,"295":-0.057809372265689433,"296":0.017553236026675526,"297":0.011849097356079452,"298":0.01341580347379105,"299":-0.007364975948373787,"300":-0.017511099444257924,"301":-0.022665733182612655,"302":-0.13072024272669747,"303":-0.04141058921635539,"304":-0.0814038751964298,"305":-0.05817862699861508,"306":0.0029960701269403584,"307":0.05827781102326451,"308":-0.05886457819777396,"309":0.04545614370806823,"310":0.025015964021270293,"311":-0.10586850120355411,"312":0.028492249293321635,"313":0.015096057518019096,"314":0.04820032390596343,"315":-0.014529837252144925,"316":0.008077897065192675,"317":-0.05887649088396455,"318":-0.017428435531333924,"319":-0.0014247547383615293,"320":-0.10520822930183062,"321":0.05182072591380443,"322":-0.053708931639849584,"323":-0.03252702640368695,"324":-0.05671561275486114,"325":0.06106623203122419,"326":-0.0689093757309084,"327":-0.03499803027686955,"328":-0.01931588589711895,"329":0.008245471100743078,"330":-0.028360476758309945,"331":-0.022797627202593297,"332":-0.03881106819826655,"333":0.02299793045469809,"334":-0.015024640907374832,"335":0.03137483420783117,"336":-0.09500437646473775,"337":-0.05507741681040195,"338":-0.01915697797438508,"339":-0.012251771692769307,"340":0.0573252808543535,"341":-0.046463944290989184,"342":0.08482026531375701,"343":0.04635234035716644,"344":-0.03434293958064043,"345":-0.038933738900473476,"346":-0.12483490080809852,"347":-0.04322449876437314,"348":-0.05343610261973951,"349":-0.006284686213850081,"350":-0.03150320270952112,"351":0.0003691043657278272,"352":0.0018730495648470594,"353":0.0041494231161398,"354":-0.03140108156978456}},{"sx":1,"sy":1,"depth":355,"w":{"0":0.075272283670022,"1":-0.027227488916003396,"2":0.128792932927755,"3":0.0606469984615989,"4":0.007033326651663525,"5":0.07465266724198562,"6":0.04445741904638241,"7":-0.03472031901919314,"8":0.027358109940037057,"9":-0.013330744292226096,"10":0.0644058348940358,"11":-0.00393058005920724,"12":0.12214817010773603,"13":-0.05248638077535215,"14":-0.062420640613154374,"15":-0.06957912541009374,"16":0.00857018213072413,"17":0.008480158571739154,"18":0.015595456690613152,"19":-0.003885141874966693,"20":-0.017033564112433678,"21":-0.03424849390808287,"22":0.048056779035180006,"23":-0.012788894630302257,"24":0.047726976585466034,"25":0.05426825320196778,"26":0.05850196093405489,"27":-0.014499244881137074,"28":-0.06236309871740869,"29":-0.049419220597083716,"30":-0.011785753046639633,"31":-0.005120500362448637,"32":-0.04011549538103243,"33":-0.03804652173435399,"34":0.014825926365934128,"35":-0.011217096596968573,"36":-0.09903241827482982,"37":-0.01133518913953776,"38":-0.07720551002678816,"39":-0.020806303752581044,"40":-0.0188856952580825,"41":0.08603258991858785,"42":-0.020013028182790722,"43":0.05167841620844381,"44":0.05029915931162316,"45":-0.09263114526300083,"46":0.009374969519491346,"47":0.005210193721870345,"48":-0.02455561491160991,"49":0.07199148152243227,"50":-0.07264248637680965,"51":-0.055958732793688466,"52":-0.08731754484128688,"53":0.030589835069987414,"54":-0.007266157762168685,"55":0.001097505688564889,"56":0.04222354406933684,"57":0.062279104814569275,"58":-0.02169076287531913,"59":0.02284403609136708,"60":-0.030233613009109536,"61":-0.02486626055127149,"62":-0.03190197786873118,"63":-0.03979201326564238,"64":0.041641859851634336,"65":-0.04993080189726819,"66":0.03183059621211138,"67":0.0003417753770288873,"68":-0.005040830485653039,"69":0.052745520267005366,"70":0.020863481901879952,"71":-0.05217348922880953,"72":-0.006588865958103451,"73":0.07653922811472853,"74":0.040152335161047756,"75":-0.004692082239514936,"76":0.028895524558541615,"77":-0.0164877628251748,"78":-0.01908148397843165,"79":-0.03751290655007536,"80":-0.022127904814170145,"81":-0.19038777892310602,"82":0.023885093741942153,"83":0.04035260892181731,"84":0.015423309844586727,"85":-0.03561826664717391,"86":-0.050851950725131934,"87":-0.12437822558202778,"88":-0.04057808314340436,"89":0.06778222969834112,"90":0.05223970357324716,"91":0.05774278765157548,"92":0.04754235545474676,"93":-0.020762674818641764,"94":-0.06770823305880193,"95":0.001998144224988235,"96":0.03283508889415851,"97":-0.0213931385853159,"98":-0.02376697712607345,"99":-0.04138579718288632,"100":0.00035069803732265433,"101":-0.04337922066483799,"102":0.035506203863793134,"103":0.04083805582426546,"104":0.031260804847853436,"105":0.03342689008274791,"106":-0.027685589661699303,"107":-0.10155958699595379,"108":0.020209450942242052,"109":-0.002218269553285986,"110":0.07229427041202809,"111":-0.09211997421603657,"112":0.058561462776399835,"113":-0.05566793882441138,"114":-0.06914562699103537,"115":0.03805955627901791,"116":-0.0477283666483715,"117":-0.013686777888100722,"118":0.01819226098059167,"119":-0.037805398956677165,"120":0.06653076556286161,"121":-0.04123084293230903,"122":0.06622792017915809,"123":0.0318149859501708,"124":-0.022583444554841483,"125":0.06479701027406234,"126":0.014076474505902279,"127":0.056238615692050097,"128":0.02350893653013534,"129":0.016975174231427935,"130":0.0038571364876006345,"131":-0.059936820889361406,"132":-0.06462600829651532,"133":0.016278869670407703,"134":-0.013568949799414842,"135":-0.028064820535616687,"136":-0.05202832477894807,"137":-0.09869408379328133,"138":0.03038702839485614,"139":-0.013249578697201005,"140":0.08525892285156209,"141":-0.07140606454769129,"142":-0.03568597746413845,"143":-0.041304670636282216,"144":-0.013748411263370815,"145":0.0021478903508804527,"146":-0.007035062503319169,"147":0.0016553889574878165,"148":-0.022468751943261367,"149":-0.020201985037353976,"150":0.017378107033414802,"151":0.05960167230709413,"152":0.0847124857070294,"153":0.05270492018066159,"154":0.047821671921124805,"155":-0.01563190290372047,"156":0.03484729311803201,"157":-0.055826905458124,"158":-0.01001906875390773,"159":-0.03798308943078697,"160":0.05676259423210957,"161":0.051972010478949844,"162":-0.021905639604067564,"163":-0.030774935703394252,"164":-0.04514853816652858,"165":-0.022447907136323383,"166":-0.06976436031439494,"167":0.07611937514823537,"168":0.020777414811857686,"169":0.01082067424167971,"170":-0.03571794786621048,"171":-0.005622875970641952,"172":-0.0007649063312660711,"173":0.04834691156345737,"174":0.06311378853614508,"175":-0.011428655442797222,"176":-0.031741731935855826,"177":-0.0011833178891034986,"178":0.003379629399812037,"179":-0.05311623854925945,"180":0.039449295300388085,"181":0.051866139875521564,"182":-0.016888772096081063,"183":-0.07002986220489534,"184":-0.03280535993137594,"185":0.05509049248858311,"186":0.03391318928636242,"187":-0.000644166877794733,"188":-0.00008084571110953291,"189":0.07495472219067727,"190":0.05099380490739666,"191":0.04262661775846407,"192":0.026387972650457867,"193":0.00013741153098932802,"194":-0.13288915283866978,"195":0.026134362923672418,"196":0.04035188064524847,"197":0.03985679154870403,"198":-0.09930139934055605,"199":0.0060885554661899025,"200":-0.018416739132237833,"201":0.082836701753023,"202":-0.018740824228663883,"203":0.010864314586591565,"204":-0.0588365491175088,"205":0.03739299508722648,"206":-0.020923803863909008,"207":0.0076914069780598445,"208":-0.032151760867353996,"209":-0.046507444525186015,"210":-0.08747671495220263,"211":-0.007351779398457355,"212":0.09063890002667586,"213":0.011249740342889392,"214":-0.0631780606580683,"215":-0.06754697194420661,"216":-0.00938656776687235,"217":-0.03693853504463397,"218":-0.02479797841641125,"219":-0.0911996558522948,"220":0.014687883735147842,"221":0.12216940610170977,"222":0.13733958341780156,"223":0.030447995185092763,"224":0.02601581706522179,"225":-0.00947651060293129,"226":0.0030827964956654176,"227":-0.06322276484441669,"228":0.015547360337527757,"229":0.038864085239635665,"230":0.00951724985080272,"231":-0.04227494422974678,"232":0.035762228574188336,"233":-0.11863168707287255,"234":0.06288438329915014,"235":-0.047252246796867535,"236":-0.0658412477812987,"237":0.015007744407998333,"238":-0.07005389815749226,"239":-0.00553637505012034,"240":-0.005116748026368802,"241":0.0528974855329575,"242":-0.008584305075072872,"243":-0.09258798855920211,"244":0.02894575712948562,"245":0.029240044603816608,"246":0.056887585827694244,"247":-0.11574929111368591,"248":-0.0012322904513123209,"249":-0.0785122683247504,"250":-0.049862641088949694,"251":-0.013356223729087093,"252":0.03583680176998237,"253":0.02223588038679074,"254":-0.04934247580564354,"255":-0.03903430355476528,"256":-0.029893567899040643,"257":0.030132296775225404,"258":-0.08634173074831741,"259":-0.011172375500822757,"260":-0.03286004869219945,"261":-0.00740290856507597,"262":-0.005540669059032774,"263":-0.11755679009153532,"264":0.024285615366030067,"265":0.030417910848351135,"266":0.056999337589499065,"267":-0.023716747184756044,"268":-0.08463356211583709,"269":-0.019732449912948688,"270":0.032939934294441406,"271":0.0009092496441476574,"272":-0.03178110589897606,"273":0.012277704593686066,"274":-0.0014004060231672141,"275":-0.028305777075111543,"276":0.09381031572321581,"277":-0.014468926520886818,"278":0.035822050733241045,"279":0.021988506634988195,"280":0.051473409587039116,"281":-0.015213864068310433,"282":-0.01402743082943334,"283":0.0034074325758292473,"284":-0.06987284313544485,"285":0.05694904021497547,"286":0.01896598363667038,"287":-0.07800640716714614,"288":0.019689483496808713,"289":0.029432690853146055,"290":-0.07619532191886379,"291":0.0008710539474630109,"292":-0.06877057568525649,"293":0.019031312205787,"294":-0.022329510986526364,"295":-0.037202162186154054,"296":0.026817801774164474,"297":0.000700855374875867,"298":-0.030139279471678385,"299":-0.0991944981148455,"300":-0.012182137303729664,"301":0.034653427807351915,"302":-0.012035478363687518,"303":-0.04291050876776574,"304":0.0319165905422845,"305":-0.09050696285632187,"306":-0.058955421626397324,"307":0.06270565537267984,"308":-0.06309972364899288,"309":-0.02237478257400334,"310":0.02600930280291433,"311":-0.009543508423734502,"312":-0.03501274953457511,"313":-0.014667527711877442,"314":0.0440251570074639,"315":0.04203544423077795,"316":-0.04705269078758282,"317":-0.049642753933014934,"318":-0.04599661306493043,"319":0.025193308958682374,"320":0.02992509701277023,"321":0.006232364577784165,"322":0.013151512236819105,"323":-0.058258809157262226,"324":0.049786332588785794,"325":0.06103418140021322,"326":-0.01770380956305032,"327":0.07288926631435873,"328":0.032152218688660354,"329":0.039342821588953726,"330":0.040405996460063084,"331":0.07452418689863796,"332":0.044788657743977854,"333":-0.06277251207436425,"334":-0.08778075566384165,"335":0.06079594615704076,"336":0.06882328805334696,"337":0.06861018462935548,"338":-0.0074958901861645645,"339":-0.06356073583240975,"340":-0.08015203140733847,"341":0.04149706532707585,"342":-0.016602049708373073,"343":-0.009303029060327567,"344":-0.030044816541476987,"345":0.041560812501350124,"346":0.04696309327456682,"347":0.006862086288050799,"348":0.003016923581575422,"349":0.035341828074539276,"350":-0.09212531120152084,"351":-0.008161027060695563,"352":-0.034907304932832235,"353":-0.007314760520796372,"354":-0.05481872663681881}},{"sx":1,"sy":1,"depth":355,"w":{"0":0.03076585611784295,"1":0.031280340524612225,"2":-0.006749707263032085,"3":0.12214503565438435,"4":0.016850143196439626,"5":0.04597890619468446,"6":-0.07102107938327785,"7":0.024059414013934306,"8":-0.10727733238395108,"9":0.07610328576747889,"10":0.024122620731288104,"11":0.029005287019935187,"12":0.046308835556790724,"13":-0.06213461017998077,"14":0.015889761581132613,"15":0.004611002556317945,"16":0.03689284806918753,"17":-0.04078094488173697,"18":-0.017589440571467933,"19":-0.05349663266966896,"20":0.04666071100642641,"21":0.04807825122019071,"22":0.05381588815027395,"23":0.03037206434942702,"24":0.040643622749896635,"25":-0.0054547111951243335,"26":-0.027139788733336508,"27":0.04068686997807545,"28":0.036740222322515934,"29":-0.02430915008176671,"30":0.04372737830614934,"31":0.13294769106708598,"32":-0.02350915784303118,"33":0.0074537257070129165,"34":0.0074953605133417315,"35":0.03480143547551958,"36":0.0043801375384671755,"37":-0.046637617890053724,"38":0.10248730933004135,"39":-0.022177578085626266,"40":0.011545420952840864,"41":0.08387197217580482,"42":0.0012791456482938082,"43":0.03314819304201857,"44":0.04493562218641232,"45":-0.0011177698455509249,"46":-0.00003889891615497629,"47":-0.12383337204905139,"48":-0.11311036087987375,"49":0.013226779050179908,"50":0.08825409555241255,"51":-0.024087585435235735,"52":0.03623132369086229,"53":0.043609560762773655,"54":-0.026517614777484856,"55":-0.057888212661868645,"56":0.09245479027180149,"57":0.060904160162357994,"58":0.07017133342125227,"59":0.03416144485641411,"60":-0.010655867565347114,"61":-0.008914573417316723,"62":-0.020357317124090064,"63":0.03724944176347014,"64":0.007835362190622166,"65":0.09201218912731923,"66":0.052949448725908836,"67":0.03201033897615971,"68":-0.004741629565020328,"69":-0.01603967459554761,"70":0.036225610642913984,"71":-0.029780961359168256,"72":0.0032621672814009735,"73":0.12479887855080338,"74":0.04882008919314955,"75":-0.00016687630249544717,"76":-0.05650274408021656,"77":-0.022243112811150177,"78":0.145521064563526,"79":0.11174983508991954,"80":0.10878440812743584,"81":-0.10957507578201899,"82":0.06263799848563786,"83":-0.03810099380488036,"84":-0.015087583575443354,"85":0.02507671139743558,"86":0.10512380239605472,"87":0.09934665948851858,"88":0.012864054614375729,"89":-0.05807756935870489,"90":-0.13797584206142324,"91":-0.0018217362741075802,"92":0.0039133242322934615,"93":0.11186777059760455,"94":0.2378688157271529,"95":-0.012955254112527325,"96":-0.05011605095992596,"97":-0.030115474890817916,"98":0.013310212586532897,"99":0.04072864205146397,"100":0.03562350447745138,"101":0.09817328865509867,"102":-0.026785560946530992,"103":0.04960807705837039,"104":0.0027286750125770083,"105":-0.0029434131272504218,"106":0.05320907382704662,"107":0.04862041498214143,"108":0.08463597038472331,"109":-0.022169124225162408,"110":-0.05875549495397747,"111":-0.05792638200544095,"112":0.02590546944110572,"113":0.06945405119994617,"114":-0.007041076549200469,"115":-0.001870649442987702,"116":-0.055194628183009985,"117":-0.014860597734533017,"118":-0.010009514778077416,"119":-0.031346571025949996,"120":0.01619732386743298,"121":0.02190235221823968,"122":0.022438860018420034,"123":0.018070376962103014,"124":-0.014318215600828466,"125":-0.013904814001478782,"126":0.053096108140566756,"127":0.010951580208866593,"128":0.03370424577080982,"129":0.13866968696722065,"130":-0.08207241953858234,"131":0.005454313185914262,"132":-0.099103001732153,"133":-0.024745200768036706,"134":-0.13382051912137782,"135":0.031444617943808796,"136":0.08852194836105552,"137":-0.01819843179233507,"138":0.0003369131261321121,"139":-0.07143159731678562,"140":-0.03814381431848561,"141":-0.03847792048789231,"142":-0.05539966141660139,"143":0.0028585619940177925,"144":-0.000023005439759188907,"145":0.04092292782483264,"146":0.046879384224197414,"147":0.07786689998529159,"148":-0.0061317877711810406,"149":0.03471727284816381,"150":0.09171018270040589,"151":0.015099983739041041,"152":-0.08920633613566303,"153":-0.011080747454459182,"154":0.023169769028174896,"155":-0.00012791556366875887,"156":0.061181242023225,"157":-0.022190512430435013,"158":-0.000732331308966687,"159":-0.006557693841197557,"160":-0.03425633010846981,"161":-0.013299116595061033,"162":0.00011203084944248174,"163":0.0331814099163989,"164":0.022344790302330955,"165":-0.030753637930660205,"166":0.019847839154803877,"167":0.15743296409152738,"168":0.08005036334204645,"169":-0.06895935665245462,"170":0.03988270767387278,"171":0.09835325364686756,"172":-0.024969559388815815,"173":-0.01412760445807066,"174":-0.058237940054552524,"175":-0.02980206684412921,"176":0.053704889038860094,"177":0.04622402766473558,"178":-0.02651596380326762,"179":0.05364329219171992,"180":0.045675359064891376,"181":0.06938988091345302,"182":-0.00732881691794468,"183":0.05125039038009012,"184":-0.037518732354467794,"185":-0.04311904614290307,"186":0.01662203582496668,"187":-0.008044755179868,"188":-0.06877298958581918,"189":-0.04521110992754246,"190":-0.054480162460357584,"191":0.06505725272040622,"192":0.016206866391493418,"193":-0.022855991139458368,"194":-0.04372349116654211,"195":0.056320701991966766,"196":0.03959130675161463,"197":-0.01985061313425168,"198":-0.07666920121919595,"199":0.11706149339123734,"200":0.038939589740353234,"201":-0.05246099383692112,"202":-0.050248512621426066,"203":-0.012802917791905555,"204":0.14944765556768502,"205":0.004954973573878885,"206":0.008720320902672002,"207":0.031196914751151997,"208":0.026961373805164647,"209":-0.02918055125255906,"210":-0.04955338566501124,"211":-0.05070668659290936,"212":0.01708803841801645,"213":0.131063303318973,"214":0.004257492384510816,"215":-0.038260333413408475,"216":-0.036639346669183774,"217":0.0037563150337758533,"218":0.04627595994865173,"219":-0.04378680019440749,"220":0.004514043224826432,"221":0.029670270366786742,"222":0.02584858413439405,"223":0.050808032813588054,"224":-0.05516154394509606,"225":0.015429246172284443,"226":-0.10055300544987478,"227":0.11344662327548005,"228":0.02252369316426167,"229":-0.10151348067365062,"230":0.013055889693416898,"231":0.06430522425681567,"232":-0.025222038627629808,"233":0.05788839902512199,"234":-0.009327590494851452,"235":-0.033765825932349745,"236":0.02447562857006603,"237":0.030086408092736373,"238":-0.06516137512753763,"239":-0.0037882891580837,"240":-0.03229637274825188,"241":0.06872360910002699,"242":-0.12972770441449197,"243":-0.02918012300290135,"244":0.05704685162220536,"245":-0.030063079802890105,"246":0.03702203670995125,"247":-0.037745281473469616,"248":0.036760812630141054,"249":-0.05692683196596782,"250":-0.02527998580844704,"251":-0.06323902749758943,"252":-0.11266641370892666,"253":0.03455587015538047,"254":0.021351717056311025,"255":-0.010602624465540054,"256":-0.10754366211861784,"257":-0.07801963299369714,"258":-0.032285820387182536,"259":0.011347842829940925,"260":-0.00834630303592078,"261":0.03373995407164542,"262":0.05871600986722471,"263":-0.05428468279342197,"264":0.05580446723735052,"265":0.08064574702786885,"266":-0.003052044359343151,"267":-0.08641630249819143,"268":-0.047788599668410425,"269":0.05439677088110695,"270":0.044726926618360356,"271":-0.03335557490385279,"272":-0.10745813942492927,"273":0.06971143567697154,"274":0.09346726891511263,"275":-0.09576981310199123,"276":-0.003227752112267598,"277":-0.0828554093828927,"278":-0.10039604772319079,"279":0.09905503458013719,"280":0.00329367319722362,"281":0.05764623891976081,"282":-0.04468033226069834,"283":-0.0005065636646073267,"284":-0.035835393303972354,"285":-0.021953613843058453,"286":-0.0032474565634248876,"287":0.034804473439485485,"288":0.05240389403369613,"289":0.046829823587354234,"290":0.05092830527985341,"291":-0.03010784142901291,"292":-0.10452736166823569,"293":0.008113165129905908,"294":-0.03496521690216407,"295":0.06940447356861958,"296":0.05073609280828093,"297":0.11029353945118126,"298":-0.047218891703359564,"299":-0.01166138006522622,"300":0.09525054816332562,"301":0.06116044312733018,"302":0.053689360435922706,"303":-0.031167057473076222,"304":-0.115958547352231,"305":-0.0252253143471391,"306":-0.10449831755913472,"307":-0.08758142506539245,"308":0.01913516670696601,"309":0.0750543687834053,"310":-0.05204561286561958,"311":0.030548135074331302,"312":-0.06788108683153421,"313":-0.11173525102334056,"314":0.046196515479438524,"315":-0.03601414537058692,"316":-0.01824888701724541,"317":-0.049969521472074806,"318":0.06897105238874615,"319":-0.0006658642588615433,"320":-0.10780061257726284,"321":-0.10283288675117876,"322":0.022315542481544617,"323":0.03905372186338587,"324":-0.03586004677874522,"325":0.015605125316659722,"326":0.0031479043665193604,"327":0.007492098443318159,"328":0.026892213559990504,"329":0.058540868856010474,"330":-0.056594667159873414,"331":0.009172414451003457,"332":0.012518180696182112,"333":-0.02001673014428871,"334":0.015683886571217377,"335":0.05269924891318245,"336":0.10333511792270571,"337":0.07349163748855782,"338":0.08632552596486426,"339":0.13265439506484492,"340":-0.060062174134231296,"341":-0.030700507518021104,"342":-0.02208079967105472,"343":-0.049594550031119095,"344":0.09335252627523398,"345":-0.013199836982247217,"346":0.13120949322859438,"347":-0.015372330669116438,"348":0.097804334127599,"349":-0.08527550988474727,"350":0.030851302308066975,"351":-0.07690089031982424,"352":-0.025579262737832828,"353":-0.02623117548175598,"354":0.008775297805195434}},{"sx":1,"sy":1,"depth":355,"w":{"0":-0.019868952660034807,"1":0.025818140356301755,"2":0.001637987282646339,"3":0.008253181464560933,"4":0.014195754321308825,"5":-0.048579067404066936,"6":-0.011890370253469855,"7":0.02954399918161914,"8":0.03180924596311983,"9":-0.004649059459543186,"10":-0.039952711361765196,"11":-0.0035145384481158294,"12":-0.10225301936779171,"13":0.05433004410893708,"14":0.0208326798684895,"15":-0.044988269070377195,"16":-0.08218354599084352,"17":-0.018077876875719462,"18":-0.049322846175127645,"19":-0.0021747666355628084,"20":-0.07006446496094453,"21":0.07476521810517488,"22":-0.06024585761525254,"23":0.027131530340957614,"24":-0.07065892503258775,"25":0.008679611167589573,"26":-0.05095831757794818,"27":0.00003281039029295371,"28":-0.002205304046378201,"29":0.10856546210850265,"30":-0.04505047052158607,"31":-0.06939573401364556,"32":-0.07469749109372868,"33":-0.038709825290007965,"34":-0.046112528859001196,"35":0.05057662967452957,"36":0.13817391076006777,"37":-0.02991967165600811,"38":0.00445530763534274,"39":0.04478418660419237,"40":-0.0015116975720161415,"41":-0.03786638431641715,"42":0.014377150638525443,"43":-0.047390195570646214,"44":-0.009924663714511294,"45":0.028430591657762,"46":0.027218128937316715,"47":-0.015004538348791117,"48":0.037934102370132755,"49":-0.026896249143220464,"50":0.03402154532221755,"51":-0.029554351037918435,"52":-0.04238781522884901,"53":0.003413154215054214,"54":-0.05474352101922373,"55":0.017779308012668655,"56":0.010188948378380277,"57":-0.001771743276571607,"58":0.01974002488457829,"59":0.012364729827616475,"60":-0.02585249297702267,"61":-0.0671631368695999,"62":0.002995923259622378,"63":-0.11554221859249583,"64":-0.03678103871244068,"65":-0.06232344306629525,"66":0.07120803437486921,"67":0.04206299704839395,"68":-0.03943983619340825,"69":-0.01350125141989461,"70":-0.07393815982594824,"71":-0.07050743001166908,"72":0.0072819359403603744,"73":-0.03491079210235089,"74":0.0017076511246038512,"75":-0.0007741128791250295,"76":0.014102746258507395,"77":-0.06610458538200037,"78":-0.009568776541444881,"79":0.02904603683758709,"80":0.05970928851886456,"81":-0.008231303692582325,"82":0.07919876058837762,"83":0.0252991761795055,"84":0.011049686747342599,"85":-0.08944144001251957,"86":-0.003656086392133718,"87":-0.03890923410887964,"88":-0.022570307839035353,"89":-0.02690041103768052,"90":-0.019773248351901813,"91":-0.025495601350904663,"92":0.03996752690186441,"93":0.022358986904602352,"94":-0.05474034090249226,"95":-0.02247307916139287,"96":0.07583942375504708,"97":0.028435146341475863,"98":0.049332578686471416,"99":0.037403142251647474,"100":-0.0030496615047758335,"101":-0.02753907656283905,"102":0.01409638913841949,"103":0.05802404281543349,"104":0.02331285420345381,"105":-0.0005440711741540937,"106":0.005808755859464422,"107":0.020828322197402632,"108":-0.01537571661678786,"109":-0.11436564515717709,"110":-0.046618184357480136,"111":-0.06282709565644246,"112":-0.02078663219367293,"113":0.026657897704832106,"114":-0.00560434416943404,"115":0.018902138470500752,"116":-0.04768835703921041,"117":0.056445039049824765,"118":0.0025800882166153454,"119":0.03305686225333538,"120":-0.036901481359711656,"121":-0.04217495329892485,"122":-0.04822884566798211,"123":-0.05454249321399179,"124":-0.015325118325759066,"125":-0.030809475406944738,"126":0.03876370587867513,"127":-0.07673037594891538,"128":0.026925941614901226,"129":0.031165699979902015,"130":-0.07468446534645001,"131":-0.033240689831893856,"132":-0.014468960043870707,"133":-0.06394810693263743,"134":-0.0315846601563585,"135":0.01506833858359289,"136":-0.008448094870608354,"137":-0.0168719907148363,"138":-0.004329302333380941,"139":0.06814901322852508,"140":-0.025606576066764284,"141":0.006689628935513273,"142":0.02327309738216032,"143":0.0011034413384926078,"144":-0.005969777667476648,"145":-0.08187997240935868,"146":0.011767036285658207,"147":-0.13144604296873114,"148":0.013903851772701939,"149":0.10283207798108304,"150":-0.017371392230491067,"151":-0.052054319134318024,"152":-0.05742822120334829,"153":-0.008261009513204564,"154":0.05265339461786167,"155":-0.013029530549692272,"156":0.07889554713555286,"157":0.06643794974547605,"158":-0.08152419649490472,"159":-0.03657184372458518,"160":0.02161884814044719,"161":-0.0035694995833967366,"162":-0.04536977719078031,"163":0.022361798713500212,"164":0.022777989039052367,"165":-0.0044508451252796245,"166":0.07142805716239545,"167":0.011363322373597703,"168":-0.0373893094241055,"169":0.02704379423000486,"170":-0.01961270285120355,"171":-0.05318582982148637,"172":0.05719983132144917,"173":0.06431367492739631,"174":-0.027675462365242598,"175":0.050042453010296715,"176":-0.11730297250101342,"177":0.006305969190981203,"178":-0.0623361700652804,"179":0.020896683720274273,"180":-0.021683164510268926,"181":-0.03165031256797238,"182":-0.013420295953727696,"183":-0.03405148410705469,"184":0.01676354165678418,"185":-0.0609077362173053,"186":-0.04915113989554809,"187":-0.017733092060356816,"188":0.1446924883804258,"189":0.00015385717917541173,"190":-0.028456559064019803,"191":-0.0619110604325997,"192":0.008965925941340979,"193":-0.011169254387708962,"194":-0.012794005204051762,"195":0.03308230993294576,"196":-0.037611033388499464,"197":0.009890070343407267,"198":-0.07167862549609323,"199":-0.05062673273800527,"200":0.01140938448342181,"201":0.0672972482308011,"202":0.01175049208898348,"203":-0.057480726477916626,"204":-0.09330180041139581,"205":-0.09482035091475376,"206":-0.028842981966762514,"207":0.026616216570835505,"208":0.024165340521917475,"209":-0.05058962795854466,"210":-0.06921587973050819,"211":-0.0286453763062235,"212":-0.032893073782964466,"213":0.009713739939208387,"214":-0.009942141833085486,"215":0.04692477284578848,"216":-0.05063339426860219,"217":-0.10672470031872949,"218":0.0016112898758450784,"219":0.004654363203239954,"220":-0.041825780771569225,"221":0.010198181981801058,"222":-0.08625095584720024,"223":-0.08353504550819806,"224":0.013075928899056337,"225":0.07044056960901073,"226":-0.13834349750102354,"227":-0.03226793776985042,"228":-0.03809234846973467,"229":0.06018310313184123,"230":0.0039025573368836526,"231":0.011541657824119415,"232":-0.06383507860897188,"233":-0.00502413159588789,"234":-0.10912832026853067,"235":0.01617781083720647,"236":0.034611061347805595,"237":-0.04524331832616856,"238":-0.044552599128059096,"239":-0.024895320521713615,"240":0.12390998198612377,"241":-0.017446422551105224,"242":-0.10735464725891775,"243":0.015181567143705669,"244":0.05134348987436295,"245":-0.06939471367629983,"246":0.007230865722958743,"247":0.026832956927460273,"248":0.06055302136084653,"249":-0.017282849796915595,"250":0.005413870109736276,"251":-0.015489411296052365,"252":-0.05087676292796824,"253":0.09287613430363735,"254":0.027251561151185273,"255":0.04527614340477739,"256":0.004476136620724996,"257":-0.01329311901063482,"258":-0.017848083351080606,"259":-0.03710939503719655,"260":0.12994038272493294,"261":0.015294516858719574,"262":-0.007875442760815539,"263":0.02369441613582223,"264":0.027508291443570036,"265":0.042840161845435015,"266":0.13985057076458324,"267":0.0055073141467435055,"268":-0.018423984744622316,"269":-0.11986238138227363,"270":-0.04808237797708553,"271":-0.03169162972266137,"272":0.01846982111722729,"273":-0.0348973373066936,"274":0.027735085572239776,"275":-0.032834261194565915,"276":0.03562187536023122,"277":0.01806863338760948,"278":0.07967389959496436,"279":0.04831153434141824,"280":0.005803265475701929,"281":0.11266913561294864,"282":0.06592724486630114,"283":0.09467307564413419,"284":0.042078739349509925,"285":0.004110100732254551,"286":-0.09885860973343898,"287":-0.08959502750719266,"288":-0.022822026040775347,"289":0.0017889694012581025,"290":-0.03930578172879469,"291":0.04465514221123967,"292":0.010762017155360654,"293":0.020154992733838594,"294":0.09004714537884503,"295":-0.03434164674061717,"296":-0.0624397139098671,"297":-0.04395113541821453,"298":-0.08684946139957275,"299":-0.05067469878802178,"300":-0.038320344062245486,"301":0.015980217444780186,"302":-0.006899168078610315,"303":-0.03292058663780534,"304":0.007916383805892315,"305":-0.03399934888196272,"306":0.014295695874534583,"307":0.010534780579535422,"308":-0.07754082471284052,"309":0.0006136408538262055,"310":0.023687013683380317,"311":-0.043405063440795505,"312":0.05787512055405637,"313":-0.05228801247601013,"314":-0.13078922777537721,"315":-0.007185710709457791,"316":0.025617097347155397,"317":0.0341644323414499,"318":0.01492951851601293,"319":-0.09449306933469075,"320":-0.05675400190229534,"321":-0.01384010588815325,"322":-0.03870335644593385,"323":-0.0317976213355866,"324":-0.034601740520832376,"325":0.03506059586047533,"326":-0.041525379014660684,"327":-0.018187964022791006,"328":-0.04855480604236597,"329":0.03522003537416233,"330":-0.04108412517643112,"331":0.03718990019064217,"332":0.023928040719121354,"333":-0.001041908662350222,"334":-0.03551047086543773,"335":-0.05024764431598268,"336":-0.012550882332337176,"337":-0.04140584271187173,"338":0.029414733995558426,"339":-0.06605104461314239,"340":0.008003124412108835,"341":-0.03500820838750309,"342":-0.049799295745533614,"343":-0.03644319818765661,"344":0.026459577515612984,"345":-0.08284091187382593,"346":0.17010253254145746,"347":0.005624235684767374,"348":0.016397419090587225,"349":-0.004048781120642161,"350":-0.00045102166756238375,"351":-0.029080706776891965,"352":-0.008584709484947063,"353":-0.0019338025457275537,"354":-0.06259669212347796}},{"sx":1,"sy":1,"depth":355,"w":{"0":0.01347773782627267,"1":0.08730605842917737,"2":0.0053224396980773,"3":-0.11809333009574569,"4":0.0643087231663938,"5":-0.041101075217647,"6":-0.03430485740169165,"7":0.03918911459750949,"8":0.02869733924632954,"9":0.07728889709406893,"10":-0.036309969395450406,"11":0.042691214461618755,"12":0.11067653491268445,"13":-0.014860750389769254,"14":0.04135641572695708,"15":0.050022690414402354,"16":-0.04239753329440207,"17":-0.055841980048229836,"18":-0.06630454660869277,"19":-0.007466349274752194,"20":-0.01376039461809111,"21":0.023966602111046197,"22":0.016116574002181284,"23":0.011976119786345567,"24":0.08049148601466849,"25":-0.05123495304935746,"26":0.0074783811006766555,"27":-0.03118821744704197,"28":-0.06069338369510374,"29":0.011517182873279604,"30":0.07286704292508019,"31":-0.03973228563446729,"32":-0.017014725027549804,"33":-0.0355327411338602,"34":0.010727006242139073,"35":-0.04533146058431621,"36":0.005144269103390219,"37":0.08090822174702983,"38":-0.1043389647942499,"39":-0.08454422866699082,"40":-0.07819368859782351,"41":0.045808763815589404,"42":-0.025051466979521875,"43":-0.05674334252051315,"44":0.02134250976710342,"45":0.0009326334057376964,"46":-0.08097507473467903,"47":-0.05389311160416662,"48":0.03360419796662979,"49":-0.018799850806514747,"50":0.0018532518167086074,"51":0.05805670704630839,"52":-0.011676720145993448,"53":-0.044794185393573806,"54":-0.030432137544235696,"55":-0.002070804740053282,"56":0.003548674357170116,"57":0.049672904297100695,"58":0.06505059247917294,"59":0.006892045631202939,"60":0.031574854891959256,"61":-0.023649263880415418,"62":-0.01739879048034887,"63":-0.03726681201834549,"64":0.023830190990982575,"65":0.07504771289349564,"66":-0.08094603116994406,"67":-0.033295377449941,"68":-0.07399764167626657,"69":0.017598573901864242,"70":0.06629717227540001,"71":-0.012154457477146139,"72":0.04956825426951462,"73":0.10347126628935721,"74":0.029134014346559937,"75":0.004529717346962437,"76":-0.006484524314511782,"77":0.028557205534449397,"78":-0.018347711638131224,"79":0.03987692832790946,"80":0.06769095328199076,"81":-0.10329453476302361,"82":0.0031838408580696703,"83":-0.031967516062744214,"84":0.011236356445739018,"85":0.051814451026920894,"86":0.026338757995430243,"87":0.15029010442285592,"88":-0.1364725085594509,"89":-0.10811524911941874,"90":-0.0428354043519207,"91":-0.004441688610571647,"92":-0.0468261191086554,"93":0.15242183710125118,"94":0.039784540508913835,"95":-0.06852479669762479,"96":0.045477642424127766,"97":-0.161569183880459,"98":-0.07269682712921224,"99":0.10476719578606436,"100":0.035027547364338676,"101":0.00799441542834696,"102":-0.12535489242188247,"103":-0.007303470597165947,"104":-0.043449197299034174,"105":-0.043077004139105556,"106":-0.03190748673904036,"107":0.10708906537643846,"108":-0.022951689954761843,"109":-0.0006282889773781776,"110":-0.04559667673817496,"111":0.02778085022725807,"112":-0.04130686132687213,"113":-0.03716928095439103,"114":0.10610832058091448,"115":-0.10111077908679969,"116":-0.04413647834799484,"117":-0.05367311052717963,"118":-0.01747610341531626,"119":-0.0012422821506708661,"120":-0.059409296373234666,"121":0.06906883102506409,"122":-0.053216326080258565,"123":-0.09583559396699232,"124":-0.031086734925909118,"125":0.08605693918670759,"126":0.10534745798518123,"127":0.015702996220930427,"128":0.04745900303011528,"129":0.019444830453386068,"130":-0.08665704635040926,"131":-0.023960480385408302,"132":-0.015153896076123646,"133":-0.022654367424163404,"134":-0.1254123587938378,"135":0.030959273207841417,"136":-0.01650216491490358,"137":-0.1037846824043679,"138":-0.07523243278300425,"139":-0.0377468267234012,"140":0.021249815669521922,"141":-0.003923350835921753,"142":0.03315738492850385,"143":0.002773117232794681,"144":-0.11555573872981807,"145":0.03171840466712094,"146":-0.0003342022502611269,"147":-0.03076710195901893,"148":0.004069000519579676,"149":0.04167764359375353,"150":0.0513594006968239,"151":-0.10775459947840356,"152":0.0008359527466167873,"153":0.05343237932681131,"154":-0.028035295618090785,"155":-0.039062912270836685,"156":-0.10441816005705876,"157":0.04728685510357029,"158":0.012980064210939729,"159":-0.08805589621278219,"160":-0.03747271361771525,"161":-0.07124290896911625,"162":-0.06341845757710386,"163":0.1320163272875918,"164":-0.08499410273015139,"165":-0.03976524589204794,"166":0.034596648373121576,"167":-0.03348576829352495,"168":-0.05329586991769861,"169":0.06018210031367633,"170":0.04284372244736988,"171":-0.02114918271399318,"172":0.0763605915469035,"173":0.13857653053169852,"174":0.03670956221274536,"175":-0.0062310461951032665,"176":0.029313991113775462,"177":-0.059393178954168804,"178":0.005336136871045872,"179":0.006598092327709062,"180":-0.03442464552073239,"181":-0.040064514126440326,"182":0.08819084469773206,"183":0.04345861511566271,"184":0.06659701427730834,"185":-0.03818173985669113,"186":0.05821811634918125,"187":-0.06324383748287206,"188":-0.0006861691185966484,"189":0.017914052941845043,"190":0.06988830423806047,"191":0.02881114259596401,"192":0.06728328317441339,"193":-0.08293583633470988,"194":-0.010621440767333849,"195":0.013727599680618091,"196":0.02719272729176339,"197":-0.07125121606829564,"198":-0.010720512610505528,"199":-0.02204521076711752,"200":-0.13907674674527612,"201":-0.018158532735354168,"202":-0.07928150445180758,"203":0.06716901879715131,"204":-0.03323962421321332,"205":0.0664560736590241,"206":-0.010795171638387283,"207":-0.03114109826642161,"208":-0.015400512230875836,"209":0.003903523051034495,"210":0.044388767747398986,"211":-0.0272579912099435,"212":0.04033896859187083,"213":0.03549197451921353,"214":-0.002388219168064071,"215":-0.014173153256664298,"216":-0.030049827696103662,"217":-0.0020175635641127895,"218":0.006409460148315634,"219":0.0372161249041622,"220":-0.028685126340254517,"221":-0.104605835199665,"222":-0.015903746171838148,"223":0.012064405474155718,"224":0.04178361874740721,"225":0.013669241833207111,"226":0.03719514905356021,"227":0.008088617989730804,"228":-0.03014042330643806,"229":0.023159987431194504,"230":0.03164343575635516,"231":-0.03965470159087952,"232":0.03628750315455167,"233":0.01935475280925209,"234":0.0027943521293420084,"235":-0.05950538267148035,"236":0.00011638773510226887,"237":0.004660657300547377,"238":-0.007810692403209687,"239":0.07551340845575677,"240":0.01451510277038715,"241":0.02101316217842763,"242":0.010148239034837659,"243":0.024856302778130213,"244":0.026032954405454896,"245":-0.02593210464688104,"246":-0.005539497351816839,"247":-0.027301555975804838,"248":-0.07431349529364688,"249":0.0417331136859462,"250":-0.019880035708052753,"251":0.03159112997058436,"252":0.057778626814594676,"253":0.03118169651481858,"254":0.016544108141598114,"255":0.05283319863138972,"256":-0.016395136170160463,"257":0.008292769262066995,"258":0.014965625455537875,"259":0.0078119908841370106,"260":0.004429243565464942,"261":0.046192327488308184,"262":0.03612175572821916,"263":0.00043433891305520733,"264":-0.038842503971203195,"265":-0.07258160368073946,"266":-0.009997144297728858,"267":0.014264581122694674,"268":0.10469902421576463,"269":-0.014409086012938058,"270":-0.06151684257969108,"271":-0.11390938470931397,"272":-0.016946115716542663,"273":0.030040367011204026,"274":-0.07479703843232022,"275":0.06157334811223387,"276":-0.0001120023734452188,"277":0.016451958112556186,"278":-0.02285151216119298,"279":0.058003501548340476,"280":0.08058366790599558,"281":0.003401677599347471,"282":0.07298780264403999,"283":0.032876710684334,"284":-0.02765760692177338,"285":-0.02800903253917128,"286":-0.05160957432300158,"287":0.01027220922321239,"288":-0.052405248213889366,"289":0.05846582568583644,"290":0.02268245982039881,"291":-0.047346483088383316,"292":-0.007564855552228654,"293":-0.013279623242957889,"294":0.012597194776955043,"295":0.19406754245752528,"296":-0.01297223962985505,"297":0.06328374724774193,"298":0.06185519209147576,"299":-0.11532013138878133,"300":0.009184801152732503,"301":0.005220312337755714,"302":-0.0061502528694399984,"303":0.02136831625687372,"304":-0.04511865868117419,"305":-0.07313235764284075,"306":-0.04394139606552017,"307":-0.044281666699942185,"308":-0.021348428860143542,"309":0.07889909913815721,"310":0.03716043805926632,"311":0.09255497663380498,"312":0.02643765308189825,"313":0.05469997060275098,"314":0.0034122915544444045,"315":-0.013091845079890418,"316":-0.11313107025545655,"317":0.061281101491283504,"318":-0.0582536167252688,"319":-0.02177396798327634,"320":0.028512961454641397,"321":-0.044437178916124316,"322":0.02551401798155762,"323":0.07024630407015883,"324":-0.044835706495064916,"325":-0.052551892096634224,"326":-0.028982170677079748,"327":-0.0041178959034199394,"328":-0.13842161264850528,"329":0.04014942589187155,"330":0.012860105800253907,"331":0.031519751202164235,"332":0.06526851339774982,"333":0.03971778745157562,"334":0.0023130837929643275,"335":0.025518034558753358,"336":-0.018335188147002662,"337":0.11914069639905504,"338":-0.0009186780621507032,"339":0.01168530754085274,"340":-0.05827122116278439,"341":-0.052623063084141934,"342":-0.04664671305984104,"343":-0.03170378173308507,"344":-0.04632537438177011,"345":0.07237496752370048,"346":0.0939389519041929,"347":0.00930778675771578,"348":-0.00838313407106052,"349":-0.04117245859220211,"350":-0.045544773708265145,"351":-0.038482027105006485,"352":-0.02345496681068193,"353":0.004843061107478311,"354":0.032849387868175005}},{"sx":1,"sy":1,"depth":355,"w":{"0":0.04873180483642344,"1":0.015496804770168304,"2":0.007791097117082098,"3":-0.026118491783755037,"4":-0.023334522686972094,"5":0.012281777229878468,"6":0.09459556687153535,"7":0.04660009030069783,"8":0.028089710253784456,"9":0.06497272028054973,"10":-0.0407861303222908,"11":-0.04831525829448685,"12":0.09416929019174616,"13":0.022099690843440028,"14":-0.03145718682469335,"15":0.012699689567507114,"16":0.04963154459402138,"17":-0.04314889798295586,"18":-0.022998021865780417,"19":-0.030710858561711143,"20":0.0635280763050563,"21":0.016655070109675468,"22":-0.0026422581281996317,"23":0.039341694232995404,"24":0.027541362722833182,"25":-0.08073675037223461,"26":0.005455661940238279,"27":0.09433652064418112,"28":-0.011804130763452875,"29":0.005049032143014111,"30":0.04176883837535389,"31":-0.040053409629587824,"32":-0.012632698264351608,"33":0.02419878577613694,"34":0.0246038475208428,"35":0.05140439123203544,"36":0.08248120659271448,"37":0.04973889785834006,"38":0.006873157407947694,"39":0.051247789461708035,"40":-0.013373136345031449,"41":0.016430376336307007,"42":0.06782023359412771,"43":0.08380857218024816,"44":0.053557245568778736,"45":0.0132086061692473,"46":-0.012221232294810085,"47":-0.0022642624317936247,"48":-0.04587992545266026,"49":-0.03846879276414757,"50":0.05906442180701615,"51":-0.051794144405083356,"52":0.0382067342787589,"53":-0.034404542172931894,"54":0.0322143257975492,"55":-0.05417877306265465,"56":0.012950856778166408,"57":0.050149289178863896,"58":-0.03439005983741437,"59":-0.003705227382208109,"60":-0.026219459261374155,"61":0.07402922613652463,"62":-0.05268427188355376,"63":-0.04422578743738466,"64":0.019959066111510812,"65":0.03721956392264816,"66":-0.0315621412845427,"67":0.009003785893139651,"68":-0.025321550046158377,"69":-0.043387007774167465,"70":0.04340793436320072,"71":0.027816122273043427,"72":0.0921322045114367,"73":0.1548853928478196,"74":0.03926343182945602,"75":-0.010162352982966041,"76":0.045103911652591366,"77":0.0245593024568611,"78":0.0782695671040548,"79":0.073636496716279,"80":0.09167084907218696,"81":0.10315808731905682,"82":0.07963886618384018,"83":-0.026687027249449727,"84":-0.02761001083709637,"85":-0.06920852315233474,"86":0.01541230522911933,"87":0.2298767542292965,"88":0.03170748017539171,"89":0.026554691200880106,"90":-0.019746346922295058,"91":0.044857183253578445,"92":0.07403941661456367,"93":0.0931412636912667,"94":0.14337319190394573,"95":0.043809340262149825,"96":0.007295469467624836,"97":-0.09282858926769373,"98":0.11789896300690336,"99":-0.026227463651399434,"100":0.12867759961155417,"101":0.18562636410502192,"102":0.13626674428568666,"103":-0.04200992605064837,"104":-0.11141995803893534,"105":-0.014175588707839719,"106":-0.1257610562841625,"107":0.048472062040795634,"108":0.13351109553052315,"109":0.03222145955896732,"110":-0.040831546326529,"111":0.017973910663791906,"112":-0.05233426541685474,"113":-0.02023562898414922,"114":0.12521982107272578,"115":0.05702992103054423,"116":0.04670341448763588,"117":0.021621750182120515,"118":-0.02672165680772962,"119":0.0022652919235484972,"120":0.09464347658481342,"121":0.08424065565358148,"122":0.1213706348945827,"123":0.036338035951585836,"124":-0.02089187985236647,"125":-0.03965169187739019,"126":0.06709529756175998,"127":-0.0036166460736496027,"128":0.09461995009419238,"129":-0.004507134359435186,